2903 50
的 0.976312 0.368139 -1.229316 0.229862 -1.940968 0.341769 -0.067388 -0.393867 0.171719 1.982251 -1.171767 0.643796 -0.762382 0.204843 0.290890 -1.025307 -0.522333 1.161049 -1.968266 0.818879 0.951218 -1.355822 -1.540734 0.569321 -0.368293 1.064442 -0.603673 -1.005874 1.412072 -1.239826 0.714630 0.646388 0.605535 1.084046 -0.516639 0.723582 -0.862581 -0.441562 -0.221481 -0.170978 0.172221 0.613730 -2.021570 1.363756 -0.372928 1.186572 0.169552 -0.173249 1.319506 -1.021599
在 0.878197 -0.729058 -0.529596 0.509209 -1.364003 0.479928 -0.547730 0.939407 -1.123982 0.824316 -1.465227 -0.082810 -0.153300 0.831653 0.509385 -0.149390 0.131956 -0.078231 -1.233189 0.550537 0.846803 0.139901 -0.096348 0.020972 -0.631456 0.949652 0.270592 -1.822759 -0.451422 -0.715824 0.506212 0.439973 0.053295 -0.006126 1.002886 1.426711 -1.063037 -1.398089 -0.681577 -0.183010 -0.102448 -1.244128 -0.008479 -0.276950 0.362763 0.192408 -0.259477 -0.499187 1.105158 -0.228257
等 0.642936 -1.170154 0.255328 0.725780 -0.752660 0.163673 0.617563 0.145143 -1.047666 0.839615 -0.073591 0.719978 -0.692616 0.441460 -0.190423 -0.878568 0.204360 -0.839531 0.778192 0.372521 2.018669 -0.936922 0.020638 0.111259 -1.190711 0.282339 -0.787662 -1.172951 1.171836 -0.057194 -0.265535 -0.597993 0.938437 0.959550 0.016827 0.510448 -2.172943 0.646939 -0.111770 -0.424982 -0.387225 -0.282356 -0.357568 0.140026 -0.333333 0.454709 -0.162023 -0.459884 0.651078 -0.951508
月 0.825818 -0.433848 -0.801883 0.663570 1.012905 -0.189057 -0.371483 0.337449 -0.567324 0.233149 0.433186 -0.397988 -0.572334 -0.423902 -0.321662 -0.344741 -0.010865 -0.963684 -0.474523 1.470103 0.886473 -1.425849 -0.765028 -0.412871 -0.869602 0.427397 -1.126157 -0.889829 -0.111221 0.344022 1.435718 -0.606973 0.772062 0.950685 -0.152710 0.922378 -0.997643 -0.861790 0.315126 -0.471745 -0.211308 -1.078637 -0.758344 0.266292 1.269718 0.892691 -0.500415 0.556785 0.802225 -1.615495
後 0.331988 0.092910 0.386193 0.541062 -1.768562 0.101919 0.023983 0.757694 0.829147 1.083248 0.319211 0.873088 -1.695426 0.768333 -0.164445 -0.532019 0.287761 -1.344929 -1.694179 0.708862 0.534049 -0.215813 0.249041 -0.678367 0.110774 0.043271 -0.357681 -0.401627 -0.510233 -0.485510 0.844825 0.506126 1.426402 0.509184 0.019384 0.581644 -1.065062 -0.616752 -0.012609 -0.471919 0.284178 -0.493867 0.543987 0.686332 0.576083 0.396382 -0.585621 0.372391 1.086059 1.386882
年 2.209875 -0.230484 -1.058074 0.628351 1.130472 -0.457142 -0.022986 0.196671 -0.531573 0.089184 1.065122 -0.716082 -0.412042 -0.048357 0.231866 -0.299811 -0.883868 -0.162035 0.018931 1.362365 1.025913 -0.376588 0.666382 0.236693 -0.965099 0.485168 -0.768552 -0.921010 0.498947 -0.154433 1.525526 -0.484422 0.526804 1.250461 0.038080 0.823942 -0.971747 -0.891586 0.287484 -0.892822 -0.235698 -1.619232 -0.224450 0.032842 0.662894 0.263519 -0.372773 0.544559 0.412380 -1.090646
與 -0.037442 0.097489 0.320353 0.546547 -0.872300 0.217344 0.782314 0.458990 0.407120 0.729751 -1.504193 -0.379526 -0.322321 0.352037 0.474891 0.071177 -0.056565 -0.493671 -0.762882 0.876530 1.406779 -0.558159 0.994511 -0.476220 -0.631276 0.754230 -0.357389 -0.162288 1.087627 -0.307976 1.309784 0.286694 0.769987 1.268151 0.222036 0.420794 -1.064609 -0.464862 -0.365518 -0.123833 0.204944 -0.570429 -0.935131 0.392462 -0.570659 0.602352 -0.062882 1.021101 1.247704 0.284576
為 1.051874 -0.374559 -0.735125 0.628152 -0.757019 -0.896118 0.130633 0.981167 -1.038202 -0.293781 -0.544927 0.521728 0.215813 0.182187 0.867781 -1.251154 -1.583808 -0.609109 -0.307557 -0.229770 0.286761 -0.975375 0.375773 -0.022768 0.755508 -0.503852 0.661460 -0.936742 0.157420 -0.862440 -0.319538 -0.980629 0.256084 0.394328 -0.681331 0.930040 -0.026902 -0.183721 -0.684287 -0.718500 0.152602 -1.510465 -0.657361 -1.162595 -1.011191 0.140827 -0.449875 0.854401 1.822103 0.241105
是 1.179599 -1.270179 -0.871869 0.641500 -1.039931 0.173337 -0.809577 0.732321 0.359350 0.346088 -0.271334 0.374871 0.140441 0.923092 0.573849 -0.728153 -1.097849 0.281616 -0.269189 -0.562764 0.464212 -1.181210 -0.247317 0.062460 -0.574864 0.469006 0.737474 -0.578817 0.560138 -0.549062 0.338238 0.981863 0.630401 0.655927 -0.248734 0.523914 -1.798504 -0.846702 -0.263314 -0.784261 0.373619 -0.310151 -1.214744 0.406617 -0.527558 0.846993 0.008644 0.157754 0.731019 0.702249
人 0.328862 -0.501784 0.335814 1.149788 -1.240562 0.225199 -0.282398 0.886379 -0.052167 0.525309 0.128549 0.854229 -0.102031 -0.015837 -0.282825 -0.143249 0.060226 -1.586589 -0.026988 1.263653 0.813279 -1.389088 0.082895 0.627313 -1.380999 -0.775637 -0.333596 -0.427938 0.920931 -0.538521 -0.266945 -0.549617 1.009109 0.708711 0.512330 1.622367 -1.404501 0.082583 -0.351304 -0.575709 -0.821429 0.553338 -1.225460 -0.045853 0.191505 0.636709 -0.031714 -0.251575 1.025107 -0.624585
中獎 0.441735 -0.468887 -0.157133 0.829143 0.409119 -0.145061 0.598720 0.164446 -0.168178 -0.707073 -0.139279 1.201552 -0.193777 0.028014 0.239831 0.155018 -0.195045 -0.075633 1.437769 -0.268731 -0.558623 0.294538 0.602033 0.391572 0.770918 -1.192722 0.105965 -0.748697 0.284260 -1.081692 -0.798796 -0.512920 0.557151 -0.593981 0.055112 0.132101 0.472704 0.527969 -0.041572 -0.210439 0.099405 -0.633135 0.233837 0.247791 -1.114046 0.931445 -0.443212 0.567175 0.280299 1.059125
記者 0.718079 -1.415067 -0.720014 0.527745 -0.895670 0.608824 0.166462 0.426156 -0.756418 -0.222742 -0.864072 -0.047508 -0.546578 1.131775 0.200027 -0.050955 0.604478 -0.119012 -1.382970 1.440085 0.105022 0.334763 0.832074 -0.853942 -1.212923 -0.712797 -0.122597 -0.037596 0.363777 -1.315068 0.287826 -0.809440 -1.065441 0.647665 -0.819022 0.813057 0.609357 0.553150 1.348315 -0.138565 -0.789099 -0.197247 -0.209277 0.368233 1.602234 1.911863 0.236820 -0.119756 0.703572 -0.470920
男 0.461519 -0.969977 1.596942 1.577410 -1.002130 0.606071 0.212700 0.516904 0.355742 0.057570 -0.488694 -0.073798 -1.090562 -0.761155 -0.335134 -0.498406 0.292367 0.145277 -0.483770 0.748537 -0.194944 -0.197228 -0.735533 -0.365669 -0.029355 -0.069052 -0.104834 -0.995635 0.115637 -0.699395 1.113794 0.277851 0.121475 0.175556 1.091055 1.633010 -1.340624 0.168101 0.324927 0.245202 0.157900 -0.554131 -0.573459 0.389436 -0.150942 0.324209 -1.205105 0.554169 0.964845 1.096319
陳 0.849076 -1.588494 -0.288827 1.154668 -0.732228 0.365981 0.598216 0.090828 -0.018420 -0.283353 -1.238914 -0.296977 -1.479164 0.219914 0.605460 -0.938793 -0.392589 -0.713407 0.013023 1.328661 0.008189 0.045489 -0.467438 -1.108266 -0.361957 0.566976 -0.231332 -1.173401 0.434671 0.442622 0.681447 -1.605467 0.638882 0.875689 -0.281939 0.878436 0.389136 1.231275 0.675203 0.699515 0.897047 -1.040497 -0.208212 0.552331 -0.387756 0.301536 -0.747180 0.437106 0.535457 0.396738
有 0.993139 -1.018136 0.745254 1.026802 -0.184366 -0.843990 -0.586845 0.152373 0.237647 0.163200 -0.829218 0.661760 -0.079924 1.287268 0.497984 0.594519 -1.016836 -0.520822 -1.355747 -0.020558 0.664966 -0.140473 -0.823146 1.035837 0.265823 -0.524628 1.215113 -0.073712 0.207197 -0.466239 0.237821 -0.384325 1.075534 1.298412 0.777377 0.795029 -0.325325 -0.294026 -0.501113 0.181493 -0.141061 -0.191817 -1.454726 -0.125963 0.467569 0.023587 -0.426886 0.506374 1.275935 -0.638568
被 0.913482 -0.594382 -0.416378 1.624429 -1.315826 0.062348 -0.030385 1.220780 0.267538 -0.103500 0.193875 -0.277817 -1.210278 1.689276 -0.821865 0.119211 -0.288427 -0.600580 -0.478429 0.107459 -0.251832 -0.601235 0.081846 0.535123 -0.474654 0.079973 -1.035941 -0.844704 0.220263 -0.143471 -0.163468 0.425414 -0.338911 0.592881 1.085649 0.372863 -0.227446 -0.187332 0.072530 -0.634356 -0.262354 -0.844008 -0.805861 0.322890 0.432999 1.633547 0.140094 0.602912 0.702420 -0.582536
他 0.599463 -1.192742 -0.381637 0.697344 -0.348279 -0.017887 0.098149 0.054537 1.194705 0.578578 -0.968846 0.223741 -0.253207 0.569698 0.035575 0.269346 -1.541070 -0.830263 -0.694059 -0.067612 0.523094 0.379986 -0.575876 0.046948 -0.960450 0.060561 0.111194 -0.861095 -0.090110 -1.020028 0.180850 0.439378 0.350140 0.008200 0.629465 0.447825 -0.769466 -0.600610 -0.377729 -0.852736 0.987384 -1.282152 -0.373813 1.234946 -0.219859 1.754243 -0.280879 0.005394 0.923266 0.100852
每注 0.328688 -0.278998 -0.014726 0.622991 0.519103 -0.230268 0.529459 0.021825 -0.029259 -0.360811 -0.140398 1.198543 -0.535268 0.111554 0.246580 0.228355 -0.193621 -0.076334 1.180920 -0.138044 -0.574972 0.168416 0.734328 0.437555 0.807595 -0.905958 -0.089856 -0.779377 0.465547 -1.023400 -0.762644 -0.272630 0.776882 -0.558587 0.062687 0.129357 0.198284 0.447844 0.132774 -0.446690 0.088685 -0.617971 0.326044 0.474478 -1.017180 0.935667 -0.287278 0.446998 0.237465 0.806443
於 0.094963 -0.717021 -0.497829 -0.010847 -0.731458 -0.210220 -0.315476 0.751016 -0.837959 -0.035375 -0.506175 -0.194421 -0.578673 0.365435 0.894092 -0.069412 -0.637249 -0.954438 -1.285258 1.107532 0.689304 -1.225285 -0.547163 -0.193510 0.271903 0.865839 -0.349065 -0.244591 -0.038771 0.211322 1.425857 -0.561714 0.815630 0.823013 0.295357 0.623499 -1.034312 -1.165208 -0.359510 -0.247556 -0.225786 -0.189589 -0.413179 -0.016602 -0.001845 0.542860 0.058826 -0.322279 0.938824 0.201163
萬元 0.807434 0.148192 -0.497436 0.977361 0.497996 -0.627600 0.417774 0.532406 -0.810119 0.192579 0.280104 1.179782 -0.668374 -0.092000 0.658439 0.012410 0.218032 -0.426344 0.320897 0.021149 0.058011 -0.732481 0.190844 0.605140 0.889588 -0.276212 -0.590360 -1.574213 0.825179 -1.393967 -0.330371 -0.647133 1.635074 -0.260566 -1.006957 0.324294 0.387935 -0.279378 0.587457 -0.788129 0.592293 -1.369348 0.465002 0.291258 -0.776657 1.306947 -0.047508 0.655394 0.870402 0.340784
警方 0.173176 -1.325589 0.246714 0.657589 -1.500561 0.697840 0.444395 -0.647097 -0.239779 -0.365145 0.631734 1.150378 -0.306050 0.724233 -0.668342 0.415904 -0.394560 -1.021734 -1.715413 1.225868 -0.073829 -0.503411 0.319058 -0.746058 0.590623 -0.047590 -0.717022 -0.593503 -0.256133 -1.158096 0.216901 0.627005 -0.628415 0.584327 0.770937 -0.167232 -0.755104 0.115592 -0.232073 -0.214899 0.251402 0.024230 -0.826062 -0.115025 0.324516 0.232994 -0.920100 -0.184522 0.117141 -0.353462
黃 1.030027 -0.780992 -0.355315 0.736464 0.219882 0.342539 0.113401 0.467264 -0.511825 0.203887 0.062115 0.169516 1.082495 1.253769 -0.482978 -0.325589 1.190236 -0.430689 -0.415127 0.932431 0.308446 -1.070325 0.122707 -0.792013 -0.509575 0.053175 -0.134782 0.478473 1.558844 0.494783 0.437502 -0.787319 1.215612 -0.256672 0.415787 0.667978 -0.384505 0.047605 0.381062 -0.489517 0.516167 -0.260407 -0.643606 1.212988 0.206178 1.383812 -0.652272 0.374505 1.053959 1.365297
但 0.994149 -0.338003 0.057692 0.618665 -0.211050 0.033645 0.273118 0.239608 0.201962 0.097283 0.351559 0.611775 -0.724815 0.949134 -0.172928 -0.335831 -1.148601 -0.562424 -1.343332 0.045486 0.351544 -1.110691 -0.348579 -0.742416 -0.122776 -0.422203 -0.157914 0.073155 0.705828 -0.019489 0.046441 0.132977 0.894114 0.456598 0.511897 0.988205 -0.924070 -0.210159 -0.463318 0.468175 0.128453 -0.503782 -0.101553 1.240066 0.119049 0.031856 -0.940749 0.554148 1.035278 0.392255
也 0.884418 -0.754063 0.436854 0.987614 -0.387541 -0.066119 0.090109 0.021890 0.413580 -0.047914 0.094819 0.453040 -0.309496 0.559624 0.367879 0.158645 -1.238142 -0.236790 -0.855049 0.138992 0.035810 -0.458722 -0.515791 -0.323862 -0.279052 0.223003 0.522099 -0.311452 0.362188 -0.740951 -0.287018 0.413418 0.961534 1.171027 0.619211 0.782669 -0.976747 -0.673919 -0.200104 0.347889 0.283268 0.092209 -1.081151 0.434274 0.166105 0.626356 0.048039 0.478154 0.696149 -0.184052
公司 0.995990 -0.126165 -0.616683 1.010826 -0.386001 -0.465018 1.046179 0.015077 -0.866018 0.782557 0.890381 -0.270007 0.263831 0.721261 0.888879 0.674872 -0.239174 -0.301140 -0.697386 0.560051 0.623173 0.106611 -0.247563 0.468467 -0.424411 0.742486 0.153088 -0.018689 0.404279 -0.094128 1.180857 -0.685286 0.637625 0.339251 -2.334591 0.469053 -0.752532 0.438054 -1.259834 -0.422504 0.200997 -0.755755 0.085465 0.737389 -1.347149 0.530145 0.674135 0.081350 0.098896 -0.129883
不 0.673647 -0.902462 -0.276500 0.447028 -0.064347 0.178653 -0.776842 0.266731 1.171610 0.087236 0.479355 0.661393 -0.457594 0.191837 0.129143 0.019658 -0.652509 -0.524807 -0.679876 -0.566115 0.949489 0.389935 -1.353844 0.288913 -0.883180 -0.146817 0.648363 -1.124612 -0.381135 0.433742 0.065305 -0.765062 0.784572 0.508128 -0.629526 1.410096 -0.746695 -0.525837 -0.576362 0.303299 0.068117 -1.135353 -0.593840 0.615249 0.707444 1.250549 -1.041858 -0.293710 0.751745 -0.355067
報導 0.232237 -0.736782 -0.173597 0.141781 -0.390730 0.021946 -0.334220 0.471968 -1.017661 -0.465095 -0.705817 -1.163203 0.669258 1.345792 0.012138 -0.890586 0.481968 0.331615 -1.665998 0.830756 0.710327 -1.303490 -0.475309 -0.524645 -0.995506 0.614029 0.016633 -0.293870 0.156763 -0.615479 0.624544 -0.083907 -0.318576 0.464737 -1.181448 0.523197 0.777278 0.123530 1.073496 0.274964 0.090293 -1.224952 -0.523135 -0.202011 0.984607 1.526488 0.529196 0.244273 1.544813 -0.883521
對 0.507012 -0.894173 -0.262122 -0.300375 -0.519773 -0.036869 -0.156299 0.233697 -0.337919 -0.247071 -0.159172 0.227477 -0.702966 -0.082281 0.049279 0.136810 -1.225520 -0.214432 -0.963928 0.659593 0.678964 -0.612494 -0.331978 -0.491283 0.037939 0.384582 0.034822 0.739037 0.808770 0.038297 -0.314091 -0.375673 0.782945 1.002901 0.240323 0.045369 -1.093333 -0.394186 -0.732419 0.562134 -0.146821 -0.138366 -0.759120 0.381534 -0.411229 0.798889 -0.508895 0.044823 0.706606 0.759917
她 1.158420 -0.849832 0.647384 0.025131 -0.431167 0.179438 -0.684453 0.204318 0.326952 -0.446561 0.141884 0.142252 -0.070280 0.013667 -0.212194 -0.001258 -0.397229 0.090874 -0.992109 0.251209 -0.072913 0.192221 -0.915320 -0.248650 -0.430325 -0.027376 0.125704 -0.922120 -0.032655 0.633460 -0.115523 0.734892 0.510642 0.564146 0.024178 1.362628 -0.386964 -0.185093 -0.850632 0.999564 0.103539 -0.484815 -0.613031 1.298103 0.539944 0.627978 -1.238740 0.665289 0.258371 0.197357
及 0.554066 -1.102376 -0.212655 0.869529 -0.255537 -0.710226 0.561750 -0.425330 -0.859102 0.589156 -0.228029 -0.098994 -0.691572 0.281245 -0.284170 -0.123820 0.324342 -0.327422 -0.332376 -0.102573 1.025435 -1.053934 -1.075562 -0.294203 -0.452298 0.407586 -0.960980 -0.096382 -0.069265 0.542862 0.653431 -0.178334 0.290112 0.416074 -0.741922 0.029717 -0.828156 0.352384 -0.472565 0.225701 -0.413708 -0.152587 -0.721252 0.464305 -0.408634 0.910885 0.037288 -0.147673 0.508072 -0.379203
就 0.911966 0.218326 0.239979 1.420872 -0.040890 0.005416 -0.116924 0.079882 0.613062 0.024799 0.088354 0.152100 -0.177702 0.444224 -0.043874 0.277141 -0.632775 -0.362833 -1.640391 0.484366 -0.436316 -0.039676 -0.084302 0.081614 -0.021905 0.784498 0.773044 -0.673595 -0.457822 -0.033882 -0.510965 0.313518 0.561556 0.773580 0.418061 1.226135 -0.449092 -1.157633 -0.370844 0.019002 -0.059666 -0.395548 -0.421136 1.056169 0.491913 0.106308 -0.164154 0.199129 1.054151 -0.186632
號碼 0.464009 0.691531 -0.305899 0.806334 0.392103 -0.582065 0.383093 0.233737 -1.130419 -1.009891 -0.296148 -0.055074 0.567554 -0.332678 0.486709 -0.616196 0.154340 0.169153 1.386314 -0.006422 -0.268629 -0.276673 0.084815 0.060500 0.584344 -0.474865 0.302729 -0.553174 -0.422183 -0.655094 -0.391984 -0.308555 -0.158189 -0.271981 -0.819022 0.130982 1.313767 0.387070 0.289953 0.400360 -0.050811 -0.483136 0.268708 -0.809106 -0.465916 0.190844 -0.225682 0.739887 0.791297 0.273997
台北 0.516201 -0.876171 0.006333 0.411623 0.381810 0.560454 0.298642 0.141174 -0.873423 0.147243 0.409492 0.111555 0.249149 1.332870 -0.246824 -0.539182 1.085429 0.089020 -1.267597 0.037446 0.866685 -0.471660 0.829310 -0.313175 -0.565885 0.234648 -0.705023 0.246217 0.741849 -0.712284 -0.065537 -0.564775 0.276216 0.426392 -0.948434 0.574066 0.166427 0.597280 1.011394 -0.823808 -0.391343 -1.170303 0.261495 -0.040495 0.471778 1.605557 0.637955 -0.255868 0.971167 -0.150985
到 0.430479 -0.376903 0.405703 0.632305 0.056474 0.166876 -0.140237 0.084862 -0.627157 0.135897 -0.494236 -0.436132 -0.067727 0.984140 -0.297383 0.121115 -0.025023 -0.708648 -1.263548 0.415615 -0.414073 -0.148533 0.000721 0.132721 0.147984 0.962035 -0.445774 -1.538657 -0.600026 0.089413 0.391885 0.617845 0.533236 0.542735 0.548605 0.344815 -0.769453 -0.543702 0.384012 0.125808 -0.172817 -0.631900 -0.343301 0.850497 0.539184 0.477975 -1.193562 0.405859 0.507752 -0.314425
向 0.853719 -0.427321 0.856983 -0.095881 -0.403200 -0.752793 0.648888 -0.231076 -0.877274 0.080389 0.241853 -0.151193 -0.183737 0.370403 0.247380 1.061932 0.140147 -0.857779 -0.342092 0.856324 0.543661 -0.347849 -0.523264 0.455075 0.563767 0.354698 -0.261875 0.230104 -0.339765 -0.674367 0.213319 -0.168097 1.470155 1.157042 -0.548615 0.604024 -0.886475 0.082005 -0.381719 -0.247691 -0.757124 -0.878599 -0.067988 0.127965 -0.346448 0.924703 0.171173 0.175903 1.496231 0.085809
可得 0.573224 -0.157779 0.130351 0.784779 0.667859 -0.219833 0.579758 0.297573 -0.193124 -0.039287 0.459348 0.784487 -0.405282 0.030837 0.617340 0.108274 -0.152489 -0.494913 0.902708 -0.340369 -0.608610 0.016313 0.596045 0.415340 0.667342 -0.697086 -0.255772 -0.771598 0.478082 -0.858454 -0.394214 -0.378567 1.041305 -0.127855 -0.323460 0.031135 0.493830 0.357295 0.349035 -0.261927 -0.001116 -0.885991 0.505603 0.351604 -0.753582 0.308073 -0.445032 0.363180 0.363776 0.511766
中 0.195641 -1.630355 0.291414 -0.850001 -0.868872 -0.034869 -0.562870 0.885908 -0.782172 0.470193 -0.572913 -0.933193 -1.490848 0.502928 0.219883 -0.017524 -0.372136 -0.218186 -1.262179 0.226659 0.266655 -0.552604 -0.118716 -0.295659 -1.566961 0.542133 0.523305 0.046565 1.020477 -0.624176 -0.015781 -0.214363 0.748184 0.812013 0.193865 0.149589 -0.720081 -0.439050 0.631142 0.240979 -0.407312 -0.382032 0.092108 -0.528261 0.272365 0.060999 0.332911 -0.427703 0.346126 -0.549597
第期 0.279892 0.481458 -0.537329 -0.289801 0.337970 -0.415507 -0.240193 0.236746 -0.564120 -0.346844 -0.338764 0.247376 -0.059564 -0.284984 -0.141546 -0.250223 -0.071985 0.262568 -0.141795 0.100760 -0.501661 -0.493277 0.267724 -0.175746 0.590034 -0.348611 0.280893 -0.170782 0.253421 -0.068332 -0.886792 -0.553133 0.460161 -0.608718 -0.243391 0.078535 0.641319 0.423748 0.355581 -0.623403 0.596991 -0.195346 -0.179464 -0.329571 0.381102 1.082000 0.537303 1.270235 0.233693 0.323853
卻 0.722385 -0.319831 0.103623 0.374196 -0.523788 0.200943 0.175519 0.602152 0.226695 -0.168350 -0.094908 0.168647 0.085745 0.860048 0.482387 -0.512421 -0.285857 -1.270558 -0.577415 -0.160822 0.601243 -0.390597 -0.789102 -0.089760 -0.205917 -0.338529 0.078858 -0.439580 0.282289 -0.051089 0.213366 0.389507 0.349188 0.013886 0.669804 0.793026 -0.635800 -0.250062 -0.742492 0.273222 -0.136425 -0.082017 -0.504703 0.948502 0.192852 0.239694 -0.837391 0.854429 0.589483 0.139623
了 0.901962 -0.736194 0.114194 0.616620 -0.368272 0.018914 -0.145742 0.304384 -0.949345 -0.372183 -0.126564 0.566399 0.275716 0.263071 0.258453 -0.028213 -1.034779 -0.407847 -0.654282 0.360886 -0.832123 -0.347498 0.464987 0.391728 0.153346 -0.178336 0.753564 -1.403379 0.141197 -0.232389 -0.552340 0.356172 0.444003 0.330563 -0.142947 -0.229104 -0.645939 -0.626715 -0.117855 0.240280 -0.355139 -0.730008 -0.508378 1.404158 0.056482 0.366236 -0.946235 1.040690 1.045502 0.514718
上 1.235439 0.105121 -0.302571 -0.170188 -0.961294 0.078108 0.132664 0.654812 -0.597448 0.528234 -0.192230 -0.048614 -0.728022 -0.331856 -0.132904 -0.413185 0.126587 -0.752157 -0.882962 0.353229 -0.055812 -0.186815 0.442335 -0.170499 0.024519 0.660964 -0.464404 -0.348228 -0.357483 -0.167943 -0.552504 0.107809 -0.093079 0.894337 0.045544 1.127952 -0.710513 -0.475349 -1.378500 -0.243007 -0.619125 0.738211 -0.254076 0.681894 0.373698 0.886335 -0.221617 0.488753 0.724096 -0.153164
歲 0.250334 -0.904750 0.119000 0.325135 -0.338594 0.370137 -0.113841 0.428515 -0.237836 -0.437131 -1.200573 -0.636956 0.002320 0.708091 -0.193442 -0.397754 -0.251693 0.284874 -0.965868 0.509440 0.597273 -1.088218 0.831690 -0.586209 -0.039980 0.234152 -0.110179 -0.515222 0.729727 0.033936 1.031565 0.107150 0.210809 0.465966 -0.094339 -0.389957 0.130066 -0.223961 0.232195 0.856211 -0.221593 -0.613697 -1.392407 0.476721 -0.047678 0.564612 -0.447736 1.628324 0.761167 -0.166835
說 0.875721 -1.103501 0.155648 0.227435 -0.426184 0.972673 -0.462374 0.122153 -0.142228 0.439495 0.038073 0.327909 -0.031164 0.561914 0.439927 0.031680 -1.281496 -0.708766 -0.298999 -0.333574 -0.679374 0.061258 -0.407525 -0.284642 -0.233924 0.222986 0.932857 -0.403349 0.007056 -0.246788 -0.388430 0.683540 0.612625 0.558719 0.627055 0.445697 -1.234504 -0.129014 -0.037520 -0.121203 0.254826 -0.474014 -0.580332 0.405696 0.211778 0.848526 -0.311591 0.297879 0.414472 0.542131
起訴 0.128640 -1.551830 -0.038939 0.268038 -0.226021 0.673225 -0.112243 0.493832 0.734760 -0.251768 0.237620 0.507099 -0.248255 0.389186 -0.352104 -0.458682 -0.008263 0.212988 -0.202493 0.113620 1.267397 0.537903 -0.211776 -0.444907 -0.695927 -0.351275 -0.939203 -0.295177 1.056621 -0.110599 0.528116 -1.431114 0.538830 0.006808 0.133116 1.291931 -0.845422 -0.007412 0.244522 -0.526787 0.681821 -1.364699 0.364074 -0.236206 -0.219744 1.628125 0.453928 -0.502795 -0.295955 -0.850678
時 0.320115 0.646004 0.585060 0.803017 -0.341808 -0.695150 -0.243751 0.503562 -0.437780 -0.757995 -0.606321 -0.391797 0.270757 0.308592 -0.261298 -0.961723 0.175055 -0.482711 -0.283009 0.279232 1.525603 -1.333081 -1.357775 -0.863787 -0.111645 0.831621 0.256229 -0.485836 -1.044690 -0.459731 -0.127649 1.248907 0.031797 -0.111998 0.607068 1.390256 -0.596422 -1.053685 -0.167910 0.732921 0.663780 -0.120193 -0.347438 -1.137285 0.577147 0.904049 0.064746 0.238018 1.580933 -0.161479
長 0.935247 0.070914 -0.287805 1.679108 -0.463135 -0.144680 0.410448 0.477633 -1.004716 0.337356 0.982079 -0.071178 1.954704 0.732641 -0.409178 0.473404 -0.007168 -0.177364 -0.476979 1.347597 -0.164720 -0.718611 -0.277699 -0.863791 -0.490298 0.079779 0.417852 -0.438458 0.952787 0.346595 -0.260890 -0.996276 -0.050515 0.914326 -0.707539 0.365487 -1.224324 0.426120 0.457224 -0.703016 0.858146 0.150815 0.236968 0.151909 -0.084054 -0.126163 0.020722 -0.508031 -0.068812 0.641917
發現 0.410034 -0.679586 0.197120 1.181845 -0.715489 0.283876 0.259059 0.102668 0.162142 0.177676 -0.314785 0.282792 -0.014877 0.386720 -0.209699 0.187153 -0.376434 -0.728059 -1.159480 0.717890 0.417540 0.102997 -0.063254 -0.281888 0.522380 0.554395 0.061659 -0.941765 -0.955844 -0.631635 0.517395 0.313655 -0.150895 0.387571 0.794638 0.272879 -0.321103 -0.539316 -0.343423 -0.188474 0.752719 -0.003956 -0.626655 -0.449526 0.161278 0.069438 -0.081532 1.071741 0.272583 0.122329
都 1.076087 -0.715042 -0.202874 0.367708 -0.390271 0.467405 -0.623913 0.299122 0.040698 0.121228 0.100095 0.129332 -0.198483 1.159805 0.315037 -0.491090 -0.971848 -0.402294 -0.442070 -0.583079 -0.236653 -0.632059 0.129750 -0.102716 -0.793568 -0.071924 0.861040 -0.293605 0.149301 -0.198404 -0.305258 0.813099 0.063849 1.146405 0.287977 0.694709 -1.400972 -0.306560 -0.119356 -0.158347 -0.259350 0.096810 -0.760194 0.867495 0.480293 0.226492 -0.027292 0.181824 0.465286 -0.207256
調查 0.364987 -1.592226 0.230487 0.488033 -0.170778 0.693344 0.085691 -0.406905 -0.590700 0.547556 -0.113207 0.768244 -0.175530 0.535910 -0.168601 -0.255677 -0.335730 -0.647650 -1.557149 -0.069546 0.775324 -0.181118 -0.158271 -0.654815 0.838519 0.775970 -0.777837 -0.487099 -0.366926 -0.578411 0.396310 -0.776251 0.708686 -0.041585 0.233013 0.731909 -0.965060 -0.724007 0.087450 -0.228752 0.551817 -0.450852 0.070522 -0.806459 -0.531227 0.021067 0.420382 0.486878 0.133070 -0.382752
而 0.811142 -0.514957 -0.377718 0.778359 -0.383179 -0.431903 0.109914 -0.043538 0.486973 0.142470 -0.100564 0.170102 -0.774277 0.262731 -0.026761 0.216865 -0.300604 -0.704972 -0.413968 0.414785 0.128610 0.013278 -0.376953 0.197265 -0.160020 0.213421 0.215087 -0.516543 0.073508 -0.024940 0.340554 -0.198580 0.501604 0.613797 -0.068883 0.166355 -0.203901 -0.363726 -0.587900 -0.129190 0.184748 -0.387087 -0.398494 0.483371 -0.198865 0.224195 -0.281092 0.570887 0.847255 0.244073
以 0.963671 -0.608470 -0.594794 0.415431 -0.567092 -0.346359 0.207867 0.619764 -0.723922 -0.280912 0.215178 0.771119 -0.066096 0.288173 0.862259 0.331703 -0.229539 -0.944911 -0.040031 0.232566 1.080911 -0.413071 -0.498966 0.425933 0.382709 -0.415195 -0.177662 -0.848211 -0.004341 -0.031704 0.085957 -0.310108 0.811832 0.263833 -0.308227 0.074154 -0.045162 -0.787513 -0.231884 -0.393684 0.039438 -0.506378 -0.486412 0.160532 -0.269230 0.422336 0.003635 0.698401 0.802716 -0.231789
可得元 -0.132159 0.020517 -0.227424 0.045239 0.271376 -0.219551 0.208590 -0.149975 -0.076227 -0.216826 -0.490006 0.564951 -0.347563 0.211839 -0.122178 0.172435 0.159739 0.305387 0.517748 0.152555 -0.153057 0.047977 0.323752 -0.035020 0.443634 -0.227585 -0.106583 -0.447347 0.056631 -0.471896 -0.370160 -0.013992 0.111560 -0.587492 0.270161 0.093100 -0.175865 0.107054 0.309861 -0.512275 0.043373 -0.119968 0.189575 0.270132 -0.381046 0.802831 0.170169 0.149970 0.156922 0.223455
男子 -0.011950 -1.056025 -0.004333 0.726678 -0.788282 0.876299 0.188677 0.392981 -0.271391 -0.063765 -1.302046 -0.581937 0.367927 1.100894 -0.272706 0.179407 0.849275 -0.742569 -0.796161 1.039958 0.727467 -0.694706 0.889302 -0.213573 -0.568949 0.519515 -0.464721 -0.826616 0.459202 0.278559 0.845123 -0.004553 0.137590 0.281544 0.450414 -0.659888 0.650785 0.116895 0.364146 0.195329 0.189907 -0.194697 -1.456871 -0.039822 0.210646 0.638707 -0.079765 1.058158 0.343934 -0.392689
認為 0.828151 -0.808235 0.058845 0.545255 -0.176586 -0.065555 -0.108262 -0.021360 0.918810 1.034171 0.047739 0.251457 -0.973626 0.019158 -0.207844 -0.483597 -0.750427 0.497434 -0.702941 -0.626506 0.131106 -0.607220 -0.125472 -0.288513 -0.166226 0.151357 -0.366551 0.394545 0.446627 0.599760 -0.086481 -0.842530 0.985088 0.519551 0.155659 1.193602 -0.804601 -0.265931 -0.270955 0.159284 0.068801 -0.754583 -0.772900 0.230438 -0.643175 0.219433 0.285662 0.566668 0.738161 0.786497
日 -0.638411 -0.196046 0.056644 0.371010 0.347666 -0.078421 -0.474089 0.282200 -0.189751 -0.270310 -0.433010 -0.615282 -0.324094 -0.251002 -0.241845 -0.362409 0.075408 -0.983337 -0.957579 0.358232 0.137041 -1.264130 -1.307169 -0.840220 -0.161317 0.520963 -0.823390 -0.429205 -0.841645 0.537001 1.175703 -0.210113 0.222649 -0.065973 0.388988 0.856945 -0.229907 -0.720107 0.592144 -0.085216 0.174259 -0.444139 -0.367311 -0.057438 1.028727 1.148301 -0.239804 0.332021 1.132492 -0.541479
未 0.436053 -0.232597 0.333672 0.106245 0.024954 0.343861 0.196615 0.213599 0.021478 -0.485468 0.052151 0.218669 -0.658878 0.250405 1.028312 0.160162 -0.557586 -0.732955 -0.913048 0.305050 0.579111 -0.183987 -0.198125 -0.183922 -0.313458 -0.183616 0.131461 0.418358 0.449466 -0.547930 -0.135773 0.071831 0.806817 0.439394 0.844777 1.037340 -0.627896 -0.462356 -0.572547 0.466836 -0.201088 -0.187615 -0.440883 0.254597 0.309749 0.011440 -0.177022 0.578473 0.695986 -0.524919
表示 0.257609 -0.502589 -0.064130 0.360032 -0.548599 0.205750 -0.444853 -0.264478 0.140585 0.049309 0.249998 0.161635 0.576330 -0.005927 0.175160 -0.052471 -0.956860 -0.584836 -1.257687 0.647921 -0.136721 -0.636320 -0.349430 -0.942070 -0.315609 0.482554 0.590573 -0.217928 -0.445848 0.012607 -0.091049 -0.416352 0.158359 0.464559 0.023284 0.930326 -0.302331 -0.555912 -0.182612 -0.011028 0.746802 -0.343893 -0.943041 0.195831 0.041884 0.500748 -0.142399 0.181030 0.124829 0.121635
已 0.763732 -0.111967 0.536741 0.985741 -0.116902 -0.151222 -0.015293 0.013591 0.218332 0.523534 0.639375 0.086717 -0.799001 0.224626 -0.086528 -0.300839 -0.591570 -0.398345 -0.469943 0.183281 0.085963 -0.595996 -0.340704 -0.319390 0.113454 0.326354 0.031831 -0.288339 -0.015363 -0.181827 -0.189178 0.151973 0.662763 0.462273 0.766263 1.471432 -0.544023 -0.389828 -0.173778 0.102187 0.407539 -0.471755 -0.541360 -0.212881 0.010013 0.374211 0.254818 0.192751 0.895853 0.335465
指出 0.433604 -0.155090 -0.611626 -0.103156 -0.245666 0.800507 -0.567229 0.925257 0.106668 0.037232 0.009838 -0.288185 0.213238 -0.003220 0.677641 -0.129898 -0.459901 0.170396 -0.911925 0.838908 0.471465 0.413519 -0.192602 -0.689492 -0.448087 0.598139 0.068794 -0.065258 1.636206 0.483479 0.940827 -1.371386 1.021534 0.672509 0.266577 1.392300 -0.541668 -1.159712 0.067866 -0.176717 1.024226 -0.732537 0.230136 0.103465 -0.205287 0.837780 0.277721 0.175743 -0.203886 -0.569987
才 0.669060 -0.761610 -0.673145 0.469248 -0.261735 0.116783 -0.494880 -0.016051 0.994573 0.025460 -0.247547 0.342849 0.079892 -0.069196 -0.090518 -0.358416 -0.614539 -0.671197 -1.086754 0.510049 0.220101 0.409294 -0.155762 -0.365335 -0.026229 0.352908 0.456040 -0.745761 -0.848469 -0.475726 -0.104497 0.360675 0.016636 0.358463 0.392109 0.581534 -0.032584 -0.507087 -0.297079 -0.064960 0.750251 -0.123874 -0.849016 0.781902 0.728987 1.120364 -0.324909 0.879228 0.123384 0.289774
檢方 0.379129 -0.879250 0.143405 0.829223 -0.043687 0.663232 -0.025624 -0.171647 0.471493 0.544966 0.511517 0.481650 -0.957082 0.251492 0.195628 -0.353379 -0.677441 -0.291130 -0.709529 0.201957 0.165929 -0.321618 -0.198209 -0.641351 0.001782 0.150857 -0.662562 -0.182831 0.151644 0.014564 0.057454 -0.913822 1.047901 -0.224017 0.689962 1.238884 -0.285496 -0.158234 0.196441 0.275592 0.458249 -0.785509 -0.294886 -0.166211 -0.215329 0.575019 0.194547 0.257047 -0.118080 -0.542971
獎共注 0.093469 -0.610832 0.123533 0.443149 0.120860 0.038098 0.182749 0.192622 0.342060 -0.416783 0.129935 1.228390 -0.101465 -0.383616 -0.030325 0.362763 -0.245432 -0.194039 0.796449 -0.442526 -0.366637 0.394467 0.494141 0.500644 0.392616 -1.018063 -0.066171 -0.101157 0.549343 -0.536881 -0.435733 -0.396321 0.434139 -0.474413 -0.068360 -0.410823 0.378509 0.286198 -0.731547 0.126606 0.071927 -0.354115 0.098854 0.389225 -0.904405 0.501770 -0.296941 0.385966 -0.304217 1.152560
由 0.448701 -0.243819 0.159049 -0.047439 -0.227903 -0.555975 0.221536 -0.004177 -0.537964 0.295803 -0.380720 -0.018919 -0.424367 0.027815 0.446136 0.088158 -0.462796 -0.496337 -0.777215 0.559042 0.679383 -0.463546 -0.277001 -0.239422 0.494917 0.918173 0.162295 -0.013022 0.110616 0.006080 0.782182 -0.119630 0.858541 0.558478 -0.600962 0.381614 -0.651855 -0.675379 -0.229747 -0.391889 0.029353 -0.515300 0.216444 0.085625 -0.836157 0.057092 0.226288 -0.080755 1.072291 0.210983
沒 1.290480 -0.331689 0.594207 0.742081 0.547011 -0.023294 -0.123229 -0.023567 0.532434 -0.431790 -0.267315 0.258458 -0.059914 0.731491 0.312801 -0.049373 -0.895734 -0.254080 -0.868370 -0.085507 -0.277565 0.422159 -0.664367 0.332211 -0.210787 -0.357861 1.218525 -0.531741 0.284246 -0.299238 0.234203 0.313070 0.326401 0.645586 0.771350 0.756707 -0.440643 -0.426842 -0.012076 0.461801 0.186803 -0.087786 -0.612464 1.318997 0.810278 0.220308 -0.915343 1.078973 0.460962 -0.368821
資料 0.870096 -0.990466 -0.369954 0.093197 -0.146995 0.406968 0.093050 0.389971 -0.235565 0.164671 0.129675 0.005746 -0.166573 0.397732 0.612445 0.228137 0.105958 -0.093439 -0.501123 1.036177 0.119243 -0.114344 0.787166 -0.061722 -1.380723 -0.225741 -0.305783 0.462533 1.424968 -1.015491 0.251784 -0.610762 0.457593 0.872226 -0.613709 0.471036 0.253452 0.939570 0.749941 -0.621062 -0.209852 -0.115749 0.153039 0.011715 0.548400 1.209017 0.488777 -0.069164 0.296906 -0.919768
認定 0.330226 -0.266561 -0.099444 0.841829 0.505592 -0.690141 0.041477 -0.023723 0.556944 0.095405 0.287945 0.382473 -0.577227 0.527797 -0.244436 -0.851426 -0.888449 -0.031362 -0.455611 -0.658224 0.551547 -0.961178 0.158539 -0.528554 -0.246415 0.046473 -0.317048 0.716794 0.613748 -0.040842 -0.321742 -0.645507 0.811007 0.081779 0.423017 1.011965 0.009686 0.199985 -0.418697 -0.143676 0.261756 -1.026886 -0.226229 -0.154553 -0.377878 0.420454 0.444142 0.173233 1.033304 0.054596
涉嫌 0.099647 -0.145608 0.003365 0.743740 -0.840633 -0.415567 1.008131 0.050474 -0.512103 0.139773 -0.063033 -0.316601 0.069561 0.746395 0.049115 0.599413 0.640555 0.196611 0.257826 0.805856 1.096474 0.054354 -0.466902 0.689481 -0.485735 -0.310637 -1.122740 -0.080996 -0.128775 -0.099105 0.035300 -0.734596 -0.072760 0.492511 -0.242376 -0.212417 -0.317527 0.516045 -0.128856 -0.188806 -0.589868 -1.257155 -0.715580 -0.597214 -0.326257 0.339504 -0.134076 -0.389378 0.678125 0.262197
會 0.973127 -0.655596 -0.815319 0.111337 -0.199596 -0.007666 -0.465690 0.318588 0.544826 -0.264389 -0.250854 -0.013414 -0.557209 -0.010954 0.119538 0.143406 -0.922853 -0.649419 -1.012471 0.328636 -0.163354 0.871281 -0.213535 0.228882 -0.152719 0.468198 0.421862 -0.013415 -0.603174 -0.278198 -0.792675 -0.220221 0.346862 0.854707 0.410395 0.670822 0.350972 -0.366643 -0.603277 -0.282731 -0.020154 -0.140281 -0.526953 0.575026 0.828862 1.158200 0.228207 0.485892 0.099431 -0.086093
共注 0.611325 -0.411274 -0.088942 0.813924 0.221681 -0.194094 0.197660 0.408755 -0.144148 -0.081659 0.100309 0.864121 -0.387207 -0.149075 0.365456 0.122606 -0.235056 -0.434917 0.327837 0.168242 0.075731 -0.316319 0.278726 0.230586 0.324282 -0.400476 -0.189633 -0.678869 0.576767 -0.507504 -0.097527 -0.430934 1.024716 -0.014969 -0.213510 0.251412 0.003225 -0.098737 -0.093257 -0.189797 0.260791 -0.718649 0.055991 0.509923 -0.597646 0.626044 -0.319290 0.606065 0.450810 0.376816
台灣 0.932607 0.664243 0.530308 0.316948 -0.187017 0.264191 0.439621 -0.446462 -0.763458 0.269387 0.512990 -1.548901 0.657349 1.384726 0.708202 -0.955743 0.041699 -0.052398 0.275202 0.019469 -0.206761 -0.004526 -0.776490 -0.137911 -0.573812 0.764232 0.797923 -0.114866 -0.880782 -0.338880 0.005471 0.756886 -0.195684 1.235061 -0.366360 1.068788 -0.381288 0.975381 1.152270 0.651030 -0.603701 0.023259 -0.332008 -0.690017 0.346297 -0.322611 0.015419 -0.585869 0.991158 -0.715334
徒刑 0.902863 -0.097416 -0.604401 0.523086 1.449193 -0.319230 -0.525062 0.264199 0.135204 -0.107190 0.610533 -0.248451 -1.042608 -0.968817 -0.326981 -0.465700 -0.785934 0.258489 0.598888 0.606898 0.433586 -0.910306 0.636903 -0.471886 -0.643248 -0.200198 -0.461424 -0.531831 0.587129 -0.181031 1.176755 -0.483310 0.352768 0.373047 -0.276860 0.812722 -0.681865 -0.171894 0.787520 -0.947369 0.019488 -1.127191 0.092087 -0.410671 0.244914 -0.134532 -0.931167 0.312123 0.295400 -1.279301
翻攝 -0.069350 -1.221746 -0.349190 0.251074 -1.080730 0.581337 0.174030 0.116406 -0.877906 -0.245561 -0.998567 -0.085706 -0.273858 0.824001 -0.268327 -0.260035 0.918430 -0.148435 -0.985456 1.130727 0.080771 0.032247 1.395196 -1.061724 -0.801948 -0.566826 -0.391463 0.227479 0.086960 -1.017528 0.089645 -0.460266 -1.367102 0.423536 -0.271142 0.321722 0.490680 0.653409 0.777455 0.042997 -0.916379 0.439414 -0.201362 -0.226312 1.325224 1.221383 0.356853 0.105190 0.282721 -0.246148
因此 0.377351 -0.031435 0.036032 0.420645 0.513775 -0.439294 -0.027612 -0.102481 0.654297 -0.154572 0.349939 0.736506 -0.776319 0.152167 0.048015 -0.469055 -0.967137 -0.358569 -0.395043 -0.272769 0.228292 -0.594954 -0.157607 -0.291204 0.233235 -0.099575 -0.382157 0.603457 0.801174 0.131704 0.082506 -0.505082 1.126151 0.229152 0.924199 1.100321 -0.209132 -0.138086 -0.744944 0.049643 0.231226 -0.481509 -0.455089 0.018082 -0.423630 0.316686 -0.354995 0.181125 0.560378 -0.295711
法官 0.568801 -0.562984 0.263543 0.618817 0.374165 -0.620433 0.237006 -0.153038 1.004252 0.280349 0.148551 -0.083473 -0.842671 0.010577 -0.421234 -0.240181 -1.004426 0.074075 -0.462351 -0.367185 0.059280 -0.621071 0.127064 -0.528668 -0.212980 0.255482 -0.102208 1.021064 0.328176 0.258556 0.031035 -0.832130 0.778369 0.690861 0.317024 0.984241 -0.370978 -0.034363 -0.388514 0.117194 -0.158549 -0.720408 -0.721054 0.060372 -0.244008 0.430111 0.135188 0.480617 0.717103 0.154261
地院 0.350929 -0.748243 0.153265 0.646536 0.947054 -0.907030 -0.080968 0.161936 0.127007 0.419462 0.408089 0.136249 -1.211401 0.643166 -0.875480 -0.620678 0.100051 0.501295 -0.480269 -0.560943 0.551221 -0.854610 0.075461 -0.561535 -0.471567 -0.000395 -0.424868 0.791206 0.460157 -0.902801 -0.209828 -0.531986 0.411698 -0.130028 -0.006614 1.012168 -0.117637 0.014325 0.615164 -0.608965 -0.137632 -1.741602 0.707151 -0.603288 0.723780 1.462243 0.155196 -0.651865 1.429793 0.042659
從 0.694611 -0.408002 0.000503 0.168090 -0.111654 0.091596 -0.076014 0.333654 -0.166420 0.083507 -0.335609 -0.178832 -0.073640 0.194969 0.484611 -0.357025 -0.086925 -0.309345 -0.723248 0.122986 0.234927 0.341362 0.278472 0.194240 -0.272119 0.435487 0.175771 -0.721207 0.429205 0.158146 0.507057 -0.135411 0.626038 0.593033 0.017787 0.348505 -0.765528 -1.192734 0.253264 -0.024513 -0.270736 -0.501265 -0.078875 0.627894 0.302308 -0.088106 -0.208144 0.346255 0.524820 -0.618152
新聞 -0.358762 0.966265 -0.132684 0.358221 0.528911 -0.719970 -0.412637 0.024101 -0.949256 -1.210671 -0.671096 -0.877113 0.498413 -0.394677 -0.358934 -0.651785 0.669801 0.461901 0.477877 0.341180 0.784498 -0.907352 -0.948409 -0.813727 -0.275912 0.634941 -0.025382 0.219552 -1.123450 -0.044346 0.192793 0.639826 -0.768912 -0.380177 -0.493195 0.443618 0.793655 -0.624298 0.300356 0.706041 -0.178970 0.034044 -0.146655 -1.115991 0.812993 0.965228 0.473493 0.410006 0.993799 -0.696558
更 0.069983 0.766822 -0.828711 0.860851 0.342774 0.032551 -0.273377 0.449773 -0.183066 -0.180836 0.534897 0.187542 -0.846957 0.436256 0.310902 -0.613897 -1.142250 -0.547606 -0.994434 -0.729774 -0.801610 -1.507416 0.795679 -0.661483 -0.267073 0.360585 -0.295415 0.269625 0.322701 0.529810 -0.665959 0.009772 0.619431 0.648176 -0.115230 0.586890 -0.309299 -0.575678 0.493281 -0.417610 -0.874649 0.037811 -0.036097 0.997320 0.313028 -0.416679 0.273647 0.326810 1.118399 -0.702433
和 0.263989 -0.446758 0.166148 -0.333322 -0.350398 0.052490 -0.445228 0.582100 -0.120397 -0.273383 -0.442437 -0.341407 0.334924 0.205054 0.317272 -0.249959 -0.168428 -0.078542 0.240503 0.375531 0.788500 -0.690739 0.628962 -0.091608 -1.032051 0.055595 0.679279 -0.386917 1.241425 -0.169604 0.577356 0.244873 0.464637 0.451822 0.228250 -0.047795 -0.314109 -0.948817 -0.053173 0.127544 0.550862 -0.758596 -0.497218 0.635334 -0.414614 0.193388 -0.177385 0.242600 0.425318 0.204153
讓 0.656705 -0.206364 -0.153558 0.337692 -0.750142 0.210478 -0.414929 0.092363 0.269446 -0.080315 0.153393 0.617028 0.283540 0.066703 0.307554 -0.135395 -0.603747 -0.629326 -0.332214 -0.113425 0.489103 -0.171525 -0.539555 0.114797 -0.532270 -0.082033 0.758369 -0.790444 -0.222205 0.048905 -0.458904 0.178867 0.070182 0.426031 -0.443855 0.957275 -0.341310 -0.344458 -0.943600 0.318567 -0.057594 -0.197354 -0.732976 0.716239 -0.005117 0.484036 -0.537407 0.237238 0.537149 -0.343613
上訴 0.724298 0.079689 -0.765304 -0.326245 0.936105 0.588321 -0.546715 0.540093 0.197355 0.415154 -0.099756 -0.021906 -1.279468 -0.623846 1.163722 -0.029699 -1.217381 -0.281684 -0.800798 0.419636 -0.593392 -0.230486 0.565662 -0.423524 -0.229857 0.369243 -0.156417 0.520096 1.304292 -0.554543 0.368567 -0.512306 1.615137 0.497482 0.559371 0.810825 0.156598 -0.490440 0.571912 -0.453551 0.659376 -0.216791 0.097601 -0.343592 0.362761 0.534801 -0.163101 0.318460 0.232984 -1.094072
開獎 -0.410166 0.540726 -0.212922 0.314906 0.230495 -0.156096 -0.147997 -0.021543 -0.634463 -0.657442 -0.609236 -0.771576 0.132198 -0.286633 -0.380249 -0.390459 0.790084 0.472379 0.506562 0.502252 0.378679 -0.500754 -0.675498 -0.661506 -0.242226 0.452857 -0.553481 0.071643 -0.798613 0.292430 0.530934 0.002395 -0.729974 -0.332889 -0.179265 0.176419 0.750614 0.054696 0.568087 0.564933 -0.288657 0.177742 -0.082658 -0.800551 0.545128 0.693183 0.345309 0.233515 0.455715 -0.573506
或 0.619250 -0.152971 -0.057904 -0.505545 -0.472523 -0.122146 -0.136398 0.505539 0.143574 -0.114376 0.001159 0.359015 -0.644145 0.056989 0.767114 -0.498024 -0.890244 -0.561996 -0.090406 0.394120 0.566391 -0.377314 0.433390 0.689941 0.575975 -0.315147 0.739522 -0.031798 0.700263 -0.145504 0.627945 0.177341 0.465214 0.505034 -0.162101 0.318543 -0.981695 -0.403241 -0.499799 -0.307910 -0.298156 -0.157335 -0.116343 0.647346 -0.483727 -0.375187 -0.880236 0.099729 0.231540 -1.041253
仍 0.602269 0.026288 -0.190456 0.081789 0.100139 -0.024454 -0.363954 0.595697 0.647506 -0.301115 0.181626 0.417571 -0.818118 0.065339 0.590367 0.015718 -0.558255 -0.605581 -0.752591 0.409542 0.348697 -0.346728 -0.373256 -0.387794 -0.294935 -0.719104 0.239387 0.007203 0.165508 -0.740642 0.353901 0.299096 0.376454 -0.175081 0.814622 0.792017 -0.281758 -0.511658 0.071876 -0.058064 0.432861 -0.564217 0.114544 0.055651 0.993033 0.410419 -1.080468 -0.147571 0.721546 -0.024743
可 0.982784 0.236710 -0.474435 -0.195552 0.645410 0.075407 -0.346645 0.594199 -0.044418 0.090418 -0.473362 0.232084 -0.866951 -0.895225 1.358460 0.458355 -0.931121 -0.320102 -0.348038 0.707451 -0.287639 0.149067 0.097155 0.239847 0.175180 0.167986 0.318265 -0.023413 0.855612 -0.721500 0.148057 -0.041701 1.382087 0.462048 0.138279 0.586604 -0.084492 -0.202698 0.158240 -0.403225 0.503232 -0.276182 0.169070 -0.430015 0.027300 0.390419 -0.603850 0.301174 0.658820 -0.710562
來 0.773131 -0.586484 0.120724 0.355120 -0.685255 0.298621 0.044880 0.222591 -0.082262 0.298569 -0.273205 0.045584 -0.332781 0.687347 0.673258 0.059014 -0.204494 -0.826245 -0.650995 -0.211278 -0.444400 0.167675 -0.423685 0.574023 0.117902 0.410069 0.589589 -0.740218 -0.150979 0.210079 0.371272 0.561958 0.983141 0.416721 -0.125809 0.037172 -0.832156 -0.331119 -0.032908 -0.021619 -0.537491 0.184319 -0.351724 1.143680 -0.044468 0.631597 0.018576 0.623740 0.199531 0.353834
一 0.249773 0.433213 -0.461579 1.438575 0.370420 -0.385923 0.155823 0.210823 -0.167711 0.252760 0.398866 0.202288 -0.847584 0.631520 0.123784 -0.266398 -1.143007 -0.198341 -1.012135 0.213172 -0.871322 -1.074394 0.999157 -1.100902 -0.515733 0.568753 -0.248329 -0.292433 0.389551 -0.004560 -0.866035 0.080323 0.706701 0.393194 -0.167408 0.526204 -0.812988 -0.606549 1.415017 -0.606978 -0.155077 -0.079385 0.360235 0.791313 0.312612 -0.355367 0.027533 -0.569267 0.423404 -0.670485
自己 0.901314 -0.361383 -0.162201 0.105623 -0.585710 0.502745 -0.446422 -0.012148 0.637985 -0.072441 -0.358808 0.135031 0.459310 0.272211 0.270991 -0.572714 -1.094481 -0.054961 -0.685161 0.098456 -0.235353 0.043274 -0.051281 -0.288801 -0.201535 0.339189 1.022269 -0.426373 -0.445739 -0.344750 -0.131669 0.551398 0.198434 0.327180 0.354961 0.772500 -0.570581 -0.500468 -0.198970 0.128479 0.412868 -0.162031 -0.919604 0.899934 0.237463 0.858160 -0.566858 0.624339 0.347801 0.621747
照 0.948843 -0.882857 -0.573520 0.111120 0.008631 0.538946 0.049054 0.533084 -0.516552 -0.104137 -0.030156 -0.302613 -0.000488 0.617281 0.767155 -0.145781 0.230889 0.236413 -0.610189 1.102730 -0.126931 0.012752 0.929029 -0.105673 -1.437475 -0.244044 0.008684 0.205976 1.498457 -1.014750 0.246742 -0.687199 -0.076898 0.773421 -0.823301 0.543481 0.755962 0.950901 1.200216 -0.575289 -0.181825 -0.436256 0.356701 0.121012 0.836403 1.340486 0.441076 -0.006936 0.349336 -0.910627
去年 -0.060902 -0.498811 -0.794152 0.463570 0.468700 -0.128613 -0.143463 0.438018 -0.494387 0.055678 0.030957 0.046708 -0.204180 0.182737 -0.107481 0.232774 -0.071875 -0.331383 -0.542738 -0.015223 0.238744 -0.736691 -0.360197 -0.062719 -0.241017 0.216325 -0.935923 -0.663357 -0.181304 0.412438 0.320844 -0.422861 0.454297 0.144186 -0.453792 -0.139368 -0.380745 -0.906721 0.432622 -0.637440 -0.361354 -1.326548 0.056728 0.640286 0.791041 0.493145 0.102077 0.316602 0.755078 -0.189870
要 0.933656 -0.636637 -0.236410 0.497987 -0.450036 0.406944 -0.308570 0.467650 -0.025964 0.086425 -0.424297 0.868673 0.243408 0.225674 0.359949 -0.176180 -0.735304 -0.433018 -0.097810 -0.504618 -0.542472 0.107713 -0.573027 0.294479 -0.025813 0.143404 0.755740 -0.650492 0.462976 0.148595 -0.776304 0.150027 0.690105 0.115160 0.358984 0.373420 -0.643224 -0.146107 -0.114738 -0.227805 0.431741 0.169855 -0.322331 0.893730 -0.042916 0.814223 -0.290248 0.215783 0.262777 0.253812
曾 0.723607 -0.782817 0.414782 0.642152 -0.286456 -0.071778 -0.023166 0.396852 -0.247511 -0.014756 -0.475140 -0.523112 0.588906 0.590548 -0.237856 0.334385 0.239990 0.062354 -0.365346 0.506899 0.424576 -0.652102 -0.333834 -0.022901 -0.074256 0.413857 0.083134 -0.560339 0.451612 0.349349 0.264359 -0.359858 0.530830 0.522249 0.088969 0.372138 -0.029864 -0.172948 0.241397 0.390387 0.453891 -0.380695 -1.031647 0.084552 -0.216466 0.465629 0.211006 1.037908 0.806423 0.362471
至 0.339059 0.054214 -0.614724 0.650276 0.117861 -0.201315 -0.033876 0.618906 -0.738457 -0.266152 0.337632 0.294107 -0.055432 -0.337847 0.390025 0.549305 0.146477 -0.892816 -0.194063 1.041144 0.600143 -0.540845 -0.367721 0.247634 0.134826 0.090619 -0.854631 -1.387819 -0.357622 0.413573 0.686419 -0.688014 0.390484 0.122072 -0.332384 0.046439 -0.339429 -1.126435 0.271603 -0.493520 -0.151968 -0.719070 0.103670 0.080392 0.531694 0.082150 -0.391792 0.161634 0.559687 -0.510914
判刑 1.468268 0.225260 -0.777177 0.956788 1.196236 -0.181640 -0.044111 0.512270 0.600196 0.005433 0.932731 -0.242463 -0.769706 0.213472 -0.546871 0.033748 -0.702081 0.221994 0.147727 0.197060 0.031413 -0.577723 0.268464 -0.110734 -1.012952 -0.097836 -0.786617 -0.310793 1.090798 0.154515 0.517589 -0.404381 -0.085753 0.649568 0.154826 0.446236 -0.276588 -0.110836 0.657692 -0.749687 -0.040893 -0.831015 -0.144176 0.128587 0.967116 0.794704 -0.347021 -0.070767 0.302917 -0.973937
前 0.409779 -0.180215 -0.435480 0.709079 -0.312224 -0.180061 0.159505 0.315857 -0.996027 -0.064308 -0.026636 -0.269845 0.981233 0.276244 -0.239268 0.160558 0.041498 -0.030273 -0.662297 1.095215 -0.177941 -0.642509 0.714695 -0.614667 -0.136171 0.840935 -0.113083 -0.122643 0.380763 0.521424 0.203259 -0.971859 0.163847 0.309894 -0.416495 0.466780 -0.173912 0.160709 0.130186 -0.573619 -0.081816 -0.641956 0.609014 0.504289 -0.262753 0.235371 0.288340 -0.075960 0.792974 1.048080
被害人 0.177664 -0.160056 -0.021833 -0.473490 -0.555861 0.364785 -0.008715 0.397042 0.134864 -0.240877 0.582943 1.209908 -0.547779 -0.152762 0.577791 0.019877 -0.715923 -0.985943 -0.053251 0.595762 0.797940 -0.556597 0.709996 -0.051161 -0.014333 -0.878871 0.810098 -0.122057 0.314565 -0.731402 0.097494 0.413106 0.362851 0.491501 -0.213147 -0.212984 0.076029 -0.082240 -0.407232 -0.320320 0.703238 -0.208111 -0.016947 0.490484 -0.119030 0.087466 -0.747116 0.020229 0.452063 -0.467740
取自 -0.019345 1.326512 0.094462 0.279070 0.331512 -0.436644 0.058287 -0.340495 -0.910613 -0.836147 -0.268464 -1.457836 0.941737 -0.165199 0.137033 -0.558322 0.738093 0.668352 1.015473 0.343428 0.118263 -0.142865 -0.871648 -0.427448 -0.419462 0.417481 0.413054 0.046149 -1.233090 -0.169675 0.124652 0.769761 -1.235137 0.051254 -0.589953 0.177508 0.917839 0.203550 0.804240 1.013009 -0.511657 0.455302 -0.142758 -1.169479 0.626615 -0.225443 0.179305 0.016831 0.471171 -0.966482
女 0.475753 -0.197652 0.172764 0.620112 -0.248955 0.133749 -0.078388 0.365301 0.159794 0.077708 -1.145579 0.192917 0.532406 0.012707 -0.187997 -0.261825 0.259178 -0.072665 -0.084100 0.743250 -0.109076 -0.229802 -0.154925 -0.552439 0.253827 0.571538 0.304507 -0.539282 0.637184 0.325011 -0.160015 -0.655814 0.594481 0.313190 0.568178 0.799501 0.369801 -0.127369 -0.126361 0.364801 1.090463 -0.163618 -0.389703 0.704751 -0.293336 0.439223 -0.105049 0.854190 1.345450 1.422556
再 0.957589 0.102431 0.325996 0.170013 -0.295056 -0.033664 0.473957 0.163251 -0.198208 0.170946 -0.089001 0.410600 -0.712148 -0.277570 0.424591 0.555277 0.006502 -0.752371 -0.561539 0.820351 -0.245279 0.212027 0.103729 0.141946 0.644965 0.300495 0.002047 -0.367445 0.222423 -0.326020 0.044442 0.176851 1.282076 0.567057 -0.073513 0.496418 -0.478048 -0.323373 -0.226635 -0.429425 -0.200927 -0.081633 -0.007577 0.825283 -0.276074 0.344669 -0.443755 0.388194 0.722045 0.201098
又 0.570286 -0.192588 0.211053 0.546588 -0.350367 -0.323350 -0.281613 0.471031 0.139174 -0.184015 -0.146241 0.008617 -0.406804 0.107793 -0.218474 -0.015689 -0.011300 -0.651845 0.158269 0.344377 0.289979 -0.323720 -0.420307 0.180220 -0.054437 0.119691 0.062706 -0.809548 -0.225979 0.104073 0.448612 0.454358 0.400627 0.247581 0.515553 0.212116 -0.610982 -0.813106 -0.413655 0.082490 0.142321 -0.537947 -0.421185 0.682498 0.140580 0.477524 -0.615732 0.858353 0.753012 0.625077
毒品 0.381365 -1.475368 -0.930989 -0.392067 -0.600118 0.544212 -0.236907 -0.272960 0.494395 0.112802 0.144292 0.470710 0.411457 -0.014463 -0.317469 -0.355118 -0.314057 0.672192 -0.372239 0.334410 0.330283 0.195129 0.423670 0.197026 -0.134794 -0.956845 -0.308390 -0.245280 -0.063041 -0.153283 0.412083 -0.343061 -0.993708 -0.120891 -0.093915 -0.146300 -0.616779 -0.333343 -0.198805 -0.775121 -0.010774 -0.279946 -0.664509 0.300200 -0.015498 0.285034 -0.013151 -0.689041 -0.287345 -0.715745
內 0.578041 0.002768 0.239222 0.795173 -0.572145 -0.151127 0.297545 -0.141758 -0.575774 0.235685 -0.388406 0.025957 0.053493 0.218320 0.650630 0.381101 0.270971 -0.509206 -0.797716 0.824355 0.795910 0.219707 -0.785338 0.162388 -0.007810 0.105054 0.460720 -0.703288 -0.360680 0.198500 1.106484 -0.441590 0.091873 0.426493 -0.173400 0.323791 -0.275406 -0.539761 -0.158509 0.153784 -0.357327 -0.005132 -0.376756 0.405885 0.362950 -0.409241 -0.440058 -0.005001 0.414518 -0.502745
地檢署 -0.431235 -0.949307 0.027102 -0.131989 0.038926 0.340311 -0.121626 0.105177 -0.031653 0.577617 0.427911 0.462943 -0.667934 0.802099 -0.549136 -0.275884 0.727622 -0.148219 -1.381900 -0.161577 0.836640 -0.519586 0.117938 -0.588822 0.524712 0.378772 -1.218113 0.080559 -0.171891 -0.367768 0.127933 -0.848139 0.653473 -0.223461 -0.420670 0.228230 -0.132171 -0.303255 0.959449 -1.083989 0.294122 -1.026022 0.532372 -0.485830 -0.228438 1.451144 0.810060 -0.414106 0.080656 0.129835
罪嫌 0.060732 -1.506854 0.501231 0.839382 -0.500283 0.189398 0.337514 0.334170 1.165168 -0.421776 0.153958 1.216991 -1.080592 0.292011 -0.866064 0.034187 -0.347783 0.100947 -0.236376 0.637222 1.030731 -0.201568 -0.014692 -0.430964 0.031510 -1.096205 -0.880688 0.199083 0.637755 -0.539463 0.048203 -0.973523 -0.053187 0.069865 0.796855 0.484633 -1.067107 0.559356 0.508393 -0.190794 0.409419 -0.294386 -0.651250 -1.550075 0.044033 0.409675 -0.593744 -0.984468 -0.694178 -0.204031
今年 -0.319078 -0.592637 -0.172413 0.285969 0.405928 0.113291 -0.634085 0.386401 0.161094 -0.398976 -0.009519 -0.371103 -0.056382 0.128446 -0.276601 -0.254984 -0.039396 -0.823102 -0.647104 0.508711 0.609314 -0.896522 -0.760204 -0.501897 -0.280929 0.122636 -0.736323 -0.517986 -0.456464 0.562160 0.966226 -0.794287 0.158540 0.264093 0.186882 0.704532 -0.285115 -0.757330 0.401271 -0.232638 0.215406 -0.736144 -0.378836 -0.017813 1.115108 0.745458 -0.291398 0.179214 0.292540 -0.563957
另 0.818141 -0.580365 0.544704 0.946713 0.118037 0.062438 0.339214 0.219232 0.136211 0.026063 0.107026 0.641061 -0.467880 0.382690 -0.140470 0.720462 0.064707 -0.037935 -0.011233 0.651163 0.590485 -0.101715 0.014111 0.273627 0.248567 0.052543 -0.609270 -0.672198 0.526810 -0.362066 0.214564 -0.196059 0.762258 0.536560 0.345699 0.365342 -0.431555 -0.166379 0.546483 -0.324600 0.147285 -0.569384 -0.399913 -0.209183 -0.184273 0.470442 -0.149606 0.480745 0.471208 -0.387159
因 0.627862 -0.240054 -0.393122 0.654475 -0.030601 -0.086543 0.184719 0.492411 0.408159 0.086923 -0.076220 -0.046599 0.328474 0.896403 -0.293965 0.032569 -0.410873 -0.587110 -0.612111 0.179066 0.432548 -0.280866 -0.466609 -0.432450 -0.456543 -0.130940 0.115242 -0.505568 0.510762 0.341154 0.077360 -0.109259 0.133663 0.383649 0.279256 0.230252 -0.336465 -0.239663 -0.012685 0.045610 0.622132 -0.537359 -0.322999 0.743760 0.337682 0.164076 -0.794473 0.368046 0.475613 0.510136
之 0.187853 -0.563885 -0.120980 0.143644 -0.119835 -1.155061 -0.179759 0.607678 0.781031 0.075242 0.316984 0.361194 0.155770 0.454859 0.218604 1.246395 -0.731676 -0.614142 -0.180090 -0.159473 0.552773 -0.002946 -0.339403 0.908390 0.131723 -0.447872 -0.133437 0.357564 0.107977 -0.430405 0.599151 -0.287685 1.238112 0.631063 -0.425948 -0.049166 -0.866943 -0.228971 -0.534216 -0.501417 -0.419778 -0.374044 -0.048931 -0.990514 -0.036844 0.437786 0.055268 -0.648832 0.586691 0.753349
姓 0.432528 -1.035543 0.308263 0.867146 -0.480258 0.126089 0.325599 0.318444 -0.578204 -0.304013 -1.072777 -0.616584 0.822741 0.966143 -0.314623 0.344241 0.858743 -0.317279 -0.196249 0.868906 0.248257 -0.489576 -0.117571 -0.022745 -0.167721 0.205649 -0.080419 -0.377098 0.584099 0.789668 0.458292 -0.642366 0.611052 0.210111 0.196014 -0.355659 0.626585 0.460956 0.241004 0.610959 0.115532 -0.075019 -1.343576 0.633914 0.025982 0.706869 -0.052675 1.005290 0.697744 0.513466
摃 0.732554 0.077029 -0.423783 -0.134774 -0.156601 -0.496444 -0.184767 0.535009 -0.098886 -0.473597 0.607748 0.595707 0.376456 -0.751110 0.436388 -0.277187 -1.078734 -0.249069 -0.167838 -0.361733 -0.379886 -0.154555 0.326721 0.236559 0.641563 -0.575431 0.874493 0.131785 0.221252 0.181417 -0.741475 -0.601302 0.363139 -0.033561 -0.476035 -0.298905 0.529149 0.040741 -0.819532 -0.258398 0.659653 -0.269740 -0.158492 -0.284806 -0.134064 -0.673919 -0.196352 0.952181 -0.142156 0.362591
間 0.217430 -0.057092 -0.582298 0.550227 0.255121 -0.170645 0.075191 0.388542 -0.825140 -0.194819 -0.178133 -0.413403 0.277270 0.179702 0.488140 0.647520 -0.032772 -0.553556 -0.400384 0.702140 0.676316 -0.174915 -0.564002 0.316875 -0.234924 0.564745 -0.525407 -1.067352 -0.322389 0.418363 0.951835 -0.122585 0.445300 0.440870 -0.288773 0.139619 -0.401634 -1.137570 -0.003492 -0.369518 -0.301206 -1.020848 -0.114115 0.442236 0.547999 0.041336 -0.081562 0.487846 0.745930 -0.792165
該 0.401831 -0.616607 0.064959 0.297848 -0.670542 0.026207 0.147241 0.040969 -0.331220 0.547974 -0.033910 0.096199 0.279162 0.356041 0.496203 -0.275531 -0.722338 -0.424827 -0.428790 0.044140 0.420752 -0.127702 -0.145561 0.309481 0.091363 0.581436 0.596539 -0.578872 -0.454514 0.390525 1.082642 -0.072627 0.258035 0.329078 -0.160956 0.344569 -0.966403 -0.617857 -0.715537 0.002716 -0.091435 0.086722 -0.481235 -0.212050 -0.546623 -0.756069 0.293373 0.404383 -0.005756 0.039912
龜 0.675781 0.006183 -0.260007 -0.008133 -0.048396 -0.412398 -0.085819 0.472997 -0.114034 -0.344566 0.633851 0.666805 0.309196 -0.660501 0.455881 -0.201025 -0.918775 -0.339386 0.010438 -0.455190 -0.493367 -0.054164 0.302008 0.397117 0.614285 -0.699588 0.720098 0.064058 0.283775 0.051650 -0.776213 -0.563558 0.480258 -0.031463 -0.546640 -0.255582 0.584588 0.167522 -0.724399 -0.148425 0.639404 -0.262707 0.001970 -0.167550 -0.245311 -0.625415 -0.256111 0.771003 -0.172153 0.495782
到案 -0.063736 -1.411394 0.475636 0.650646 -0.633728 0.584533 0.189037 -0.049869 0.278594 0.488611 0.217737 0.530830 -0.658413 0.164091 -0.073918 -0.386849 -0.280711 -1.635244 -0.433577 0.839991 0.188856 -0.729957 0.417787 -0.692552 -0.371900 -0.119576 -0.597411 0.315356 -0.039282 0.044516 0.040364 -0.330561 0.719836 -0.504160 1.299077 0.275549 -0.358816 0.297797 -0.222860 -0.261477 0.315666 0.071096 -0.373980 0.038239 0.259963 0.668531 0.230053 0.226619 -0.250523 0.319691
台 0.024476 -1.817366 -0.028048 -1.178242 -0.317845 0.131347 -0.627269 0.627862 -0.732112 0.069855 -0.780797 -0.918981 -1.230032 0.197150 0.673598 0.051595 -0.281045 -0.259571 -1.048069 0.203367 -0.197885 0.015028 0.382943 -0.181669 -1.226539 0.179732 0.535553 0.147955 0.768290 -0.608495 0.208293 -0.922261 0.448829 0.656673 -0.498333 0.103345 -0.087341 -0.379823 0.871779 0.034416 -0.725758 -0.424076 0.395406 -0.336925 0.274081 0.352540 0.634536 0.089653 0.307944 -0.647038
犯罪 0.099814 -0.061192 0.196267 -0.425574 0.309401 -0.057804 0.083827 0.834258 0.298793 0.033587 0.268057 0.528763 -1.550412 -0.551904 0.741374 -0.803140 -1.261315 -0.475281 0.745572 0.501672 1.188260 -1.049002 0.280306 -0.096393 -0.399932 -0.803315 0.371364 -0.102766 0.868556 -0.096557 0.996294 0.211255 0.904046 -0.196652 0.298106 0.270660 -0.234582 -0.209221 0.075158 0.479271 0.587457 -0.500376 0.066829 0.460377 -0.011935 0.084523 -0.872606 -0.402432 -0.211481 -0.721754
交保 0.143815 -0.067286 -0.177303 1.124254 0.133295 -0.347464 0.475726 0.496211 -0.641421 0.199951 0.117990 0.664466 -0.885234 0.010951 -0.050511 0.615121 1.133716 -0.551565 0.652423 0.257372 -0.610951 -0.584003 -0.082428 -0.193241 0.446854 -0.714763 -0.805054 -0.410512 0.569445 -0.477825 -0.316414 -1.049668 1.147871 -0.001324 -0.324566 -0.110031 1.096349 0.190953 0.775452 -0.190218 0.432111 0.110765 0.218968 0.203365 0.304944 1.193983 0.768159 1.156917 0.464702 0.964976
檢察官 0.197369 -1.128637 -0.189842 0.027514 -0.487490 0.129909 -0.172721 -0.020637 0.178205 0.733242 -0.036707 0.453031 -0.505005 0.267883 -0.510480 0.297606 -0.016657 -0.531753 -0.703213 -0.163509 0.944746 -0.950886 -0.277168 -0.562645 0.285926 0.419342 -0.748674 0.146738 -0.047595 0.797961 -0.005815 -1.034833 0.850958 0.272372 -0.155609 0.691636 -0.234273 -0.263452 -0.013441 -0.010907 0.420999 -0.285113 -0.868464 -0.271904 -0.938002 0.560991 0.470902 0.591321 0.328169 0.648438
罪 0.560054 -0.759948 0.161338 0.623024 0.535650 -0.246831 0.201486 0.063297 0.440484 -0.140329 0.920052 0.908317 -0.339095 0.346270 -0.934551 -0.301414 0.142437 0.287270 0.475248 -0.165648 1.397436 -0.773012 0.227319 -0.172482 -0.275073 -0.421644 -1.006720 -0.093255 1.097059 -0.098572 -0.310037 -0.427073 0.116194 0.262096 0.098044 0.539320 -1.216510 0.363829 0.133775 -0.537643 0.134253 -0.733125 -0.269170 -0.013216 -0.134739 0.576808 -0.357421 -0.757974 0.061600 -0.435323
處 0.372363 -0.554973 -0.578519 0.619202 -0.188516 0.210955 0.159121 -0.290901 -0.696369 0.780517 -0.396245 0.129906 -0.239718 0.407151 -0.349322 -0.761004 0.001647 -0.114074 0.247628 0.520043 0.535799 -0.022569 0.127631 0.031407 -0.066850 0.686272 -0.564730 -1.313368 -0.306556 0.017313 0.706963 0.058817 -0.171779 -0.203273 -0.005129 0.736029 -1.219237 -0.247593 0.041593 -0.489808 0.012788 -0.208091 0.458851 -0.136950 -0.785437 -0.257471 0.192867 -0.171022 -0.242326 -0.779758
賠償 0.563756 0.367603 0.295973 0.386501 1.089235 -0.294808 0.238688 0.153452 0.689952 -0.094695 -0.323590 0.703112 -0.920652 -0.694983 0.265733 0.408715 -0.197131 0.065946 0.348255 0.196189 -0.395179 -0.218679 0.390949 -0.226157 -0.156034 0.005082 -0.224208 0.431821 1.531568 -0.490204 -0.565414 -0.592595 1.773978 0.448678 -0.014999 0.566340 0.839908 0.508237 0.837772 0.247564 0.595972 -0.067849 0.307063 0.578269 -0.204812 0.448294 -0.188490 0.933364 0.916653 0.121918
全案 0.371545 -0.475634 -0.382286 -0.202690 0.338473 0.811955 -0.283058 0.702370 0.963316 0.242895 0.452259 0.378205 -1.408871 -0.151345 0.188189 -0.344597 -0.593109 -0.359277 -0.539037 0.339312 0.207428 -0.349133 0.927984 -0.548388 -0.369906 -0.050054 -0.646052 0.209704 0.659865 -0.437943 0.209258 -0.144239 0.879616 0.220058 0.653601 0.301743 -0.157912 -0.252442 0.885586 -0.694489 0.522875 0.050452 -0.101119 -0.409532 0.423393 0.521717 -0.115987 -0.074630 -0.711561 -0.834933
林 0.430135 -0.570318 0.459790 1.167491 -0.323415 0.306555 0.066900 0.182690 0.343028 0.167783 0.128240 0.105432 -0.133532 -0.587723 -0.397755 -0.039648 0.007876 0.408225 -0.055117 0.588952 0.137299 -0.407624 -0.576647 -0.371210 -0.166883 0.064588 -0.090917 -0.522915 0.419347 0.038359 0.728313 -0.223837 0.126270 0.283992 0.235400 0.627102 -1.212767 -0.039020 0.137538 -0.087464 0.505596 -0.151908 -0.644394 0.088041 -0.366564 0.128830 -0.372137 0.235909 -0.108943 0.545881
約 0.267394 -0.284578 0.005861 0.592293 -0.018800 0.137141 0.658944 0.216899 -1.183157 0.669996 -0.401483 0.378267 -0.228713 0.112580 -0.087663 0.174899 0.833271 -0.678694 -0.579073 0.451124 -0.160029 -0.768631 -0.471094 0.519519 0.811577 0.619102 -1.440542 -1.003787 0.159061 0.538826 -0.098906 0.100349 1.166967 -0.035931 -0.203958 -0.357210 -0.560263 0.205793 0.662119 -0.044289 -0.006452 0.304922 0.149031 0.742793 -0.426259 0.667646 0.039663 0.302921 0.046623 0.191066
判決 0.291015 0.308225 -0.918832 -0.405435 0.452852 0.545009 -0.703059 0.778585 0.258077 0.148353 0.238435 -0.455088 -0.604729 -0.227479 0.759303 -0.380786 -1.006294 -0.043484 -0.900982 0.362493 -0.280281 -0.046154 0.172912 -1.037946 -0.496362 0.443221 0.132893 0.926944 1.235634 0.352022 0.345331 -1.052357 1.115653 0.485031 0.606887 0.807048 -0.147852 -0.950648 0.137974 -0.417683 0.685601 -0.275014 0.209309 -0.244627 0.208536 0.559502 0.169336 0.193932 0.008235 -0.323089
稱 0.871189 -0.672665 -0.517320 0.030391 -0.467215 0.077346 -0.403432 0.922751 0.323346 -0.117167 -0.385561 0.447151 0.171511 0.211449 0.764332 -0.162332 -0.957889 -0.544360 -0.283393 -0.036695 0.317128 0.182792 -0.129315 0.244603 -0.200535 -0.092598 0.581624 -0.143563 0.404996 -0.110120 -0.311500 0.297680 0.793254 0.188029 0.006966 0.147236 -0.493670 -0.139047 -0.333053 0.070274 0.377236 -0.382989 -0.179553 0.338359 0.047493 0.741022 -0.378730 0.175431 0.301326 0.532752
張 0.093785 -0.630642 0.675368 0.857211 -0.303290 0.491829 0.154910 0.626452 0.098081 0.156208 -0.408835 -0.333650 -0.379102 -0.447570 -0.228128 -0.259919 -0.159400 -0.171942 0.191592 0.575006 -0.028203 -0.518158 0.149042 -0.312852 -0.488483 0.020267 -0.209982 -0.535512 0.654674 -0.174639 0.419153 0.167201 0.313415 0.137493 0.766886 0.426843 -0.703312 0.348302 0.139739 -0.082611 0.546669 -0.206962 -0.358591 -0.367491 -0.559003 -0.112628 -0.371554 0.457605 0.008957 0.016674
新北市 -0.476124 -0.375627 0.219742 0.223465 -0.907422 0.210958 -0.116456 0.061204 -1.600473 0.246263 -1.229985 -0.762836 0.447651 0.375768 -0.099314 0.069889 1.115714 -0.382131 -0.783680 1.059443 0.695781 -0.420324 0.052215 -0.293649 -0.261468 1.159254 -0.172671 -0.864535 -0.631854 0.321679 1.082656 0.263835 -0.611351 0.170406 -0.324028 -0.094814 -0.453833 -0.654058 0.011373 0.094386 0.058397 0.008859 0.151090 -0.106955 -0.001096 -0.369534 -0.017452 -0.151278 0.258262 -0.035000
且 0.516319 -0.273950 0.260579 0.249550 -0.177927 -0.285027 -0.275405 0.018288 0.494460 -0.041029 -0.040780 0.304905 0.011766 0.063501 0.226543 0.114424 -0.613437 -0.097533 -0.222929 0.285256 0.671469 -0.245610 -0.244143 0.125248 -0.060013 -0.208840 0.526427 -0.022903 0.317224 0.153998 0.350930 -0.156941 0.478760 0.619163 0.118129 0.413663 -0.770635 -0.354585 -0.494776 0.359317 0.111763 -0.230631 -1.038529 0.012955 -0.327964 -0.343033 -0.672543 0.306592 0.343728 0.090957
得 0.651473 0.006995 -0.299539 0.699794 0.092652 0.086290 0.122704 0.227083 -0.265708 0.009548 0.086923 0.503821 -0.358127 0.130579 0.596185 -0.120126 -0.097721 -0.194684 0.026104 0.206016 -0.409198 0.005979 0.185169 0.427115 0.217288 -0.174588 0.179126 -1.007591 0.156200 -0.982621 -0.049084 0.560905 0.427518 0.149913 -0.440029 0.370194 -0.276688 -0.176881 0.167979 -0.211493 -0.016809 -0.413187 0.085823 0.652382 0.042813 0.488368 -0.475791 0.410610 0.642562 0.006919
錢 0.814553 -0.424318 -0.077071 0.184105 -0.470647 0.489463 0.024642 0.317912 0.147118 0.078466 -0.246450 0.969789 -0.001139 0.822606 0.549079 -0.319861 -0.275180 -0.262657 -0.476180 -0.287924 0.045110 0.371968 0.093045 0.634512 -0.345841 -0.720044 0.710457 -0.685171 0.316840 -0.584656 -0.748778 0.573242 0.348039 0.296343 0.023406 0.339005 -0.581287 0.181333 0.311385 -0.182281 -0.346946 0.164887 -0.326625 1.217601 0.632705 0.756928 -0.425304 0.215286 0.273551 -0.091454
彩券 0.251707 1.243983 0.243119 -0.178778 0.059572 -0.009532 0.300178 -0.446655 -0.560690 0.638743 0.045259 -1.271289 0.508445 0.699681 0.509984 -0.503961 0.419419 0.172818 0.022562 -0.249916 -0.354962 0.109150 -0.666487 0.271357 0.021881 0.671386 0.398465 -0.432732 -0.692490 -0.349972 -0.234364 0.845066 0.057692 0.615748 -0.443109 0.595449 0.027150 0.547374 0.848157 0.245774 -0.260509 0.356258 0.073583 -0.170727 0.208683 -0.238540 0.267330 -0.412701 0.715667 -0.570425
請 0.213213 -0.466764 0.078312 0.525925 -0.069625 -0.374983 0.272297 0.015539 0.181376 1.044522 0.395129 0.494911 -0.656090 0.498092 -0.377690 0.362936 0.497986 -0.255987 -0.298420 -0.589578 0.179641 0.101586 -0.984935 0.474237 -0.094597 -0.066476 -0.328993 0.397492 -0.064942 -0.145315 -0.073543 -0.136055 1.018766 0.003067 0.363809 0.520254 -0.187912 -0.076045 -0.286429 -0.559335 -0.022499 0.032220 -0.292372 -0.000885 0.325132 1.064371 0.762809 0.311687 0.095778 0.041412
雙贏 0.559944 0.917520 -0.303712 -0.639778 0.161777 -0.431292 0.112480 -0.093581 -0.711263 0.211601 0.277957 -0.693195 0.249961 0.079148 0.414055 -0.482585 -0.220827 0.139984 -0.188482 -0.223508 -0.853209 -0.157838 0.073278 0.133624 0.454250 -0.165993 0.777215 -0.137613 -0.187253 0.088052 -0.866647 -0.119403 0.170762 0.223913 -0.522211 0.074398 0.543166 0.811054 0.507483 -0.342599 0.211083 0.038307 -0.222516 -0.643002 0.494469 -0.240717 0.321530 0.576791 0.079055 -0.184273
分局 0.063976 0.705776 -0.367304 1.311295 -0.276740 -0.514159 0.318370 -0.468373 -0.633927 0.338189 0.726177 -0.207000 0.840921 0.079622 -0.180522 0.552359 -0.128469 -0.338516 -0.828281 1.560217 -0.409247 -0.732552 0.328155 -1.257161 -0.291561 0.563278 -0.243283 -0.322533 -0.780297 -0.048553 0.172372 0.148445 -0.483955 0.443913 -0.888360 -0.121579 -0.775688 -0.537902 0.602640 -0.841932 0.387237 0.013054 0.063612 0.179060 0.566471 -0.502345 0.059043 -0.588026 -0.317717 -0.484657
去 0.106385 0.068580 0.078969 0.078746 -0.578362 0.400813 -0.262459 0.739632 -0.451807 -0.076116 -0.632145 0.369778 0.671364 -0.079977 0.412068 0.052165 -0.443492 -0.689134 -0.732468 0.428732 -0.012610 0.451921 -0.783802 -0.075550 0.326406 0.446358 0.234047 -0.954968 -0.167075 0.371271 0.448507 -0.006732 0.234005 -0.568777 0.998937 1.100893 -0.691513 -0.762432 -0.474840 -0.544922 0.628188 -0.176011 0.524964 0.768068 0.116259 0.738091 -0.540323 -0.171721 0.314930 0.320674
圖擷 -0.093841 0.990491 -0.093975 0.173738 0.400064 -0.474457 0.042440 -0.187560 -0.944258 -0.841406 -0.370358 -0.897888 0.745226 -0.307237 0.010014 -0.410662 0.718649 0.685589 1.217711 0.195267 0.211973 -0.060693 -0.666212 -0.089386 -0.195381 0.272625 0.255100 0.074617 -0.908229 -0.024841 0.009263 0.335902 -0.843232 -0.218781 -0.685012 -0.064401 0.941761 0.201295 0.438021 0.819116 -0.432701 0.209691 0.071873 -0.918886 0.214420 0.104837 0.284580 0.141701 0.375578 -0.416068
要求 0.699064 -0.398385 0.273688 0.281594 -0.238915 -0.130629 0.232457 0.209634 0.275624 0.072199 -0.066551 0.860575 -0.147869 -0.525191 0.239742 0.338135 -0.431329 -0.644709 -0.052559 0.161559 0.060729 0.073076 -0.457185 -0.335258 0.030149 -0.325431 0.091384 -0.177108 0.271006 -0.356990 -0.320157 -0.107694 0.713093 0.018665 -0.013956 0.716059 -0.278845 0.246217 -0.696954 0.010705 0.700995 -0.187176 0.317730 0.632981 -0.356016 0.457131 -0.637454 0.084557 0.270498 0.537346
即 0.095653 1.158856 0.182500 0.645805 0.430650 -0.910432 -0.111469 0.199630 -0.737479 -0.549162 -0.515015 -0.822111 0.213828 0.053772 0.097278 -0.983670 0.299185 -0.042093 -0.014792 0.261780 0.973051 -1.201022 -0.922450 -0.564220 -0.180718 0.804156 0.139256 -0.289889 -0.609256 -0.278526 0.066760 0.696261 0.003644 -0.024771 -0.316460 1.070761 0.294644 -0.534683 0.385212 0.591821 0.162105 -0.180393 0.121856 -0.819627 0.404067 0.368322 0.368081 0.066312 1.590985 -0.894157
法院 0.480977 -0.647610 0.425603 0.057986 0.076628 -0.797853 0.427918 -0.236841 0.015937 0.565041 0.677861 0.248013 -0.944682 0.174797 -0.388764 0.448143 -0.282480 -0.609057 -0.221286 -0.339320 0.135507 -0.153110 -0.253155 0.028277 0.172293 0.065669 -0.550433 0.926414 -0.198568 -0.446908 0.030471 -0.603007 1.186885 0.665058 0.141851 0.769979 -0.510957 0.208828 -0.390035 -0.492963 -0.341299 -0.789125 0.327680 -0.256234 0.098433 0.836804 1.170352 0.118649 0.802088 0.144564
馬 0.708528 -0.015909 -0.932977 0.299498 -0.235024 0.130998 -0.297233 0.477864 -0.434787 -0.192047 0.277995 0.079383 0.510180 0.737550 0.061845 -0.333727 -0.090461 -0.064892 -0.312692 -0.435480 -0.508088 -1.006233 1.111141 -0.273967 -0.432843 0.365935 0.205688 0.569608 0.954885 0.023861 -1.208877 -0.674758 0.530553 0.522563 -0.569216 0.255851 0.050020 0.220796 -0.149242 -0.105824 -0.703923 0.448264 0.329898 1.161667 -0.123520 0.128194 0.840552 0.048274 0.830333 0.528473
最高法院 0.299906 0.610179 -0.538509 0.250367 0.824820 0.168411 -0.218041 0.235250 0.457010 0.572256 0.767562 -0.110158 -1.321882 -0.023216 -0.002378 -0.308954 -0.776986 -0.098261 -0.773535 -0.480622 -0.655476 -0.880104 0.681439 -0.388120 0.090311 0.419062 -1.011978 0.351414 0.194304 0.335266 0.223998 -0.044637 0.775846 0.211313 0.281799 0.089995 -0.200709 -0.847378 0.414016 -0.544258 -0.228044 -0.540436 0.258865 0.189571 0.371645 -0.098643 0.317192 0.661713 0.428997 -0.519555
獎號 -0.064538 -0.037223 0.305376 -0.082609 0.199984 -0.235084 0.372271 -0.366859 -0.188784 0.449386 0.494815 -0.575364 -0.115178 0.258483 0.093904 0.083409 0.278624 -0.268655 0.273285 -0.320669 0.064343 0.107324 -0.408315 0.113872 -0.146593 0.128825 -0.258605 0.138917 -0.437756 0.282316 0.307742 0.218106 -0.200212 0.274834 -0.207075 -0.174848 -0.186281 0.308049 0.179623 0.227334 -0.451279 0.037732 0.138707 -0.158335 -0.089331 -0.611931 -0.033433 -0.688929 -0.131030 -0.348672
網站 -0.000623 0.801452 0.489087 -0.218632 0.384246 0.171584 0.669148 -0.523721 -0.275443 0.527387 0.618613 -1.203598 0.217739 0.682492 0.628885 -0.390293 0.302908 -0.101490 0.430311 -0.595280 -0.797675 0.493830 -0.232136 0.196201 0.216459 0.179176 0.189477 -0.191670 -0.835320 -0.402347 -0.007106 0.422305 -0.282647 0.676096 -0.220447 0.306792 0.438854 0.900874 1.063329 0.201968 -0.489108 0.090378 0.438992 -0.654889 0.068425 -1.089137 -0.215264 -0.797790 0.204714 -0.581307
我 0.702444 -0.308060 -0.198484 0.113818 -0.171544 0.586697 -0.618085 0.376135 0.154289 0.513024 -0.134434 0.549079 0.121259 -0.033068 0.568662 0.009354 -1.014416 -0.351315 0.331275 -1.086808 -0.948095 0.354300 -0.468104 0.584887 -0.073539 0.217096 1.165373 -0.494373 0.278983 0.520069 -0.861118 0.886221 0.762859 0.332763 0.424770 0.095180 -1.084616 -0.582135 -0.493165 -0.196701 -0.073158 0.140082 -0.383796 1.245931 -0.199119 0.348487 -0.431978 0.125928 0.329075 0.689873
見 0.457482 0.360339 0.477238 0.331837 -0.305562 0.473646 0.855405 -0.367509 -0.345078 0.785354 0.605357 -1.084023 -0.070710 1.384487 0.517675 -0.526856 0.374754 -0.580758 -0.058551 -0.225465 -0.928347 0.499786 -0.455530 0.145209 0.078470 0.276536 0.023358 -0.563374 -0.886320 -0.520737 -0.145177 0.402809 0.209183 1.279027 -0.033411 0.822236 0.329656 1.361341 1.247353 0.356996 -0.467732 0.264740 -0.062075 -0.253365 0.354064 -0.546595 -0.281443 -0.627295 0.676282 -0.425374
依 -0.015298 -0.271853 -0.463934 0.814125 0.442816 -0.560632 0.382926 -0.030339 0.657192 -0.071728 0.730165 0.503233 -1.674519 0.261085 -0.885339 0.388656 -0.102004 -0.198435 -0.279918 0.175932 0.638996 -0.534217 -0.200999 -0.094747 0.052495 -0.344661 -1.565721 0.246833 -0.103098 -0.277147 0.362908 -0.241912 -0.472922 -0.099454 0.781886 -0.298583 -0.335303 -0.072552 -0.094028 -0.527176 -0.268172 -1.304358 -0.295938 -0.850004 0.571423 0.634426 -0.904370 -0.863749 0.191971 -0.353336
多 0.324241 -0.642270 0.123818 0.200824 -0.102229 -0.041149 -0.061763 0.174278 -0.477725 -0.285746 -0.119119 0.448207 0.083306 0.578735 0.417844 0.160329 -0.297475 -0.335197 -0.519413 0.231936 0.392213 -0.263745 0.335359 0.738624 0.243518 -0.261292 0.289328 -0.676668 0.217976 -0.692154 0.102278 0.187373 0.366408 0.496807 -0.270815 -0.240123 0.018589 -0.352242 0.199166 -0.106780 -0.573061 -0.376293 -0.829152 0.358722 0.229197 0.443414 -0.132296 0.656224 0.693273 -0.717057
被告 0.386127 -0.683867 -0.046833 0.316054 0.005676 -0.169450 0.079285 0.261133 -0.067501 0.479279 -0.120366 0.344129 -0.379020 0.123617 -0.248300 -0.332316 -0.791921 -0.047024 0.464174 -0.000961 0.690713 -0.741630 0.612698 -0.213880 -0.253169 -0.086280 -0.476105 0.083594 0.880616 0.645074 0.298572 -0.949420 0.886521 0.025123 0.252922 0.258742 -0.182953 0.327847 -0.647500 0.301899 0.358556 -0.340317 -0.473315 -0.256792 -0.779880 0.379410 0.071497 0.356303 -0.065462 0.308242
所 0.355221 -0.453742 0.095609 0.592746 -0.546098 -0.473155 0.267110 0.025975 -0.321389 0.081469 -0.357059 -0.050536 -0.360418 -0.000172 0.367355 -0.488290 -0.242762 -0.139910 -0.044314 0.295242 0.620768 -0.217859 -0.683997 -0.159290 -0.373892 -0.084142 0.076595 -0.276282 -0.254484 0.108684 0.385849 -0.469589 0.043874 0.305049 -0.135769 0.543411 -0.635214 0.150445 -0.445676 0.157814 -0.075150 -0.415089 -0.436281 -0.350374 -0.308495 -0.142859 -0.210685 -0.253147 0.263611 0.019406
無 0.376221 -0.058406 0.771062 0.556804 -0.548253 -0.173222 0.110566 0.310715 0.599385 0.206842 0.437221 0.521799 -0.789464 0.117754 -0.190175 -0.368513 -0.672391 -0.115763 -0.498901 -0.268308 -0.131769 -0.151167 0.450330 0.387119 0.525417 -0.295477 0.212163 -0.075049 0.058022 -0.331447 -0.309627 0.166573 0.349736 0.304381 1.125308 0.884558 -0.499740 -0.471457 -0.581081 -0.149753 0.137195 0.109965 -0.696636 -0.213509 -0.261596 -0.322248 0.140440 0.146037 0.427124 -0.066012
二 0.152128 0.766748 -0.443418 0.960106 0.913136 -0.675691 0.262300 0.044713 -0.561384 -0.153597 -0.144116 0.699026 -0.539977 0.049193 0.614507 0.057050 -0.129038 0.061824 0.270594 0.258402 -0.644772 -0.642840 0.810174 0.009225 0.933488 0.374853 -0.443781 -1.113578 0.349664 -0.647097 -0.499613 0.056434 1.032151 -0.472036 -0.476951 0.145167 0.134619 -0.641185 1.060967 -0.825024 0.082508 -0.833407 0.864596 0.912674 -0.506761 0.328162 0.038900 0.375467 0.718693 -0.121692
友人 -0.259688 -0.444096 0.420834 0.300322 -0.740946 0.171071 0.094862 0.240350 0.151787 -0.045776 -0.932054 -0.303490 0.484341 0.334032 0.212396 0.199163 -0.125074 -0.499910 -0.248050 0.420259 0.342546 0.077414 0.254043 -0.037362 -0.181827 0.366202 0.385590 -0.737441 0.071383 0.121191 0.827095 0.637801 0.187345 0.143384 0.192797 -0.186911 -0.344127 -0.441275 -0.403640 0.152607 0.334025 -0.333609 -0.473442 0.527492 -0.544615 0.333221 -0.315162 0.640314 0.224593 0.426376
萬 0.533318 0.516229 0.076136 0.488853 0.169729 -0.556186 0.199954 0.584394 0.025765 0.338643 0.527506 0.855095 -0.534113 -0.031946 0.678880 0.114376 0.467007 -0.591008 0.581432 -0.178351 1.459266 -0.687493 -0.866090 0.919775 -0.232606 -0.371625 -0.211127 -0.707733 0.597453 0.217790 -0.344495 -0.227130 1.562127 0.431263 -0.529377 0.125376 0.010305 -0.561294 0.494685 0.148567 0.028734 -0.380314 0.030527 0.538725 0.373022 0.560681 -0.032577 0.201142 0.919298 -0.936872
年月日 -0.507306 0.437990 -0.106538 -0.168999 -0.136548 0.265948 -0.332014 0.886180 -0.489143 -0.343667 -0.791435 -0.312174 0.510966 -0.225249 0.548702 -0.021188 -0.172044 -0.549620 -0.876765 0.666251 0.342545 0.008119 -0.510214 -0.527894 0.356265 0.994179 -0.208995 -0.460604 0.057050 0.723256 1.296032 -0.241042 0.300487 -0.828725 0.726794 0.986293 -0.307938 -1.180427 -0.241285 -0.718343 0.759698 -0.643425 0.926035 0.506797 -0.156331 0.662656 -0.102611 0.043119 0.580657 0.539579
偵辦 -0.105003 -1.372111 0.080087 -0.000900 -0.269324 0.484926 -0.091943 0.214885 0.216447 0.526247 0.061615 0.203120 -0.743158 0.231493 -0.421939 0.353372 -0.129415 0.082747 -0.903906 0.141406 0.858111 -0.404874 0.012698 -0.898979 -0.086321 0.419414 -0.817436 0.182168 0.160079 -0.211811 0.149050 -0.716836 0.381708 -0.013488 0.270292 0.151259 -0.725280 -0.416070 0.864772 -0.146161 0.493243 -0.127553 -0.218232 -1.061660 -0.262952 0.116671 0.446080 -0.344729 -0.692669 -0.194967
工程 -0.334090 0.124038 0.354792 -0.199009 -0.889791 -0.120415 -0.198276 0.184785 -0.531995 -0.063116 -0.217956 0.209657 -0.014294 -0.339780 -0.013892 -0.380882 0.620669 -0.122639 1.056384 0.415668 1.111869 -0.125919 -0.060331 0.559962 0.000045 -0.214066 0.063830 -0.910824 0.000290 -0.382124 0.348547 0.321730 -0.446082 0.255271 0.009899 -0.056093 -0.546927 -0.278390 -0.492249 0.063402 0.071270 -0.027887 -0.141441 -0.101272 -0.638837 0.016867 -0.364340 -0.275785 0.040170 0.211653
星彩 0.096200 0.268401 -0.313143 0.509908 0.390129 -0.445142 -0.024727 0.336527 -0.704032 -0.921957 -0.516979 0.061262 0.301935 -0.330005 -0.072767 -0.269281 0.317558 0.233542 0.692935 0.218164 0.208867 -0.474415 -0.061870 -0.242420 0.134251 -0.152290 -0.002680 -0.259862 -0.174436 -0.294529 -0.098398 -0.262781 -0.092729 -0.532350 -0.375873 0.103316 0.834034 -0.113566 0.187093 0.202545 0.089876 -0.409683 0.016107 -0.483353 -0.030099 0.900864 0.149640 0.744772 0.587448 0.161830
移送 0.053111 -1.120882 0.289363 0.451964 -0.339766 0.751321 0.108541 0.146137 0.867433 -0.206246 0.294205 0.775063 -1.268389 0.650871 -0.787154 0.145495 -0.188345 0.149733 -1.002622 0.581088 0.183060 0.212431 0.546456 -0.710070 0.347998 -0.128497 -0.826553 0.226514 0.010537 -0.475961 -0.191173 -0.695703 -0.067934 0.291050 0.560158 0.253592 -0.262792 0.162228 0.993617 -0.497867 0.266589 -0.208132 -0.286787 -1.077070 0.312233 0.566711 0.211045 -0.360390 -0.657209 -0.319269
部分 0.585461 0.247672 -0.093023 -0.034201 0.384109 0.017066 -0.072440 0.064906 0.095996 0.258242 0.511881 0.459927 -0.896140 -0.298519 -0.464424 -0.351245 -0.043796 0.059480 -0.453429 0.129814 0.458906 -0.839588 0.442328 -0.317377 0.470818 0.273836 -0.614514 0.276409 0.455557 -0.046620 0.026252 -0.210141 0.755682 0.445402 -0.129340 0.412571 -0.373499 -0.010270 0.093832 -0.492424 -0.038092 -0.084644 -0.008151 0.152699 -0.400050 0.181315 -0.005320 0.453759 0.463433 -0.219342
併 0.679590 0.275346 -0.254845 0.468694 0.604002 0.068779 -0.119717 -0.043944 0.147286 0.889179 0.476328 0.037048 -0.768490 -0.118785 -0.352942 -0.181648 -0.668240 0.307881 0.102678 0.608003 0.079161 -0.447632 0.516910 -0.322935 -0.110030 0.630994 -0.700788 -0.562520 0.030041 -0.072703 0.692062 0.280446 0.258363 0.163168 -0.496912 0.752079 -1.056984 -0.089733 0.826064 -0.849827 0.106448 -0.238220 0.279082 -0.047442 -0.051812 -0.388749 -0.341360 -0.057497 -0.218888 -1.119463
利用 0.008433 -0.370889 -0.723578 -0.264913 -0.644508 -0.330348 -0.060439 -0.007064 -0.148323 0.263577 -0.256669 0.027074 0.333595 0.175282 0.328928 0.932003 -0.451998 0.078348 -0.229080 0.349623 0.535806 0.113442 0.161918 0.598010 -0.405026 0.212430 -0.357054 -0.336555 0.028140 -0.220466 0.467080 0.293576 -0.161077 0.338953 -0.706529 -0.735902 -0.820666 -0.442279 -0.546051 -0.335585 -0.416101 -0.242240 -0.201366 -0.049406 -0.264729 0.338554 -0.341230 -0.608562 0.211540 0.432041
檢署 -0.406351 -1.744277 0.202821 -0.172615 -0.450163 0.309703 0.062808 0.123707 0.799970 0.585627 0.071128 0.120969 -1.340621 0.055246 -0.484770 0.260761 -0.029259 -0.277266 -0.308582 -0.158257 0.888694 0.059646 -0.013275 -0.843909 -0.093460 -0.129615 -0.672320 0.286390 0.142200 -0.096807 0.244957 -1.320437 0.496702 -0.172052 0.139319 0.493848 -0.654230 -0.261675 0.897094 -0.022009 0.246530 -0.609194 0.029112 -0.733767 -0.688178 0.296441 0.694256 -0.140618 -0.338765 -0.107452
集團 0.114298 -0.085285 -0.343787 -0.015430 -0.605979 0.190985 0.112841 0.648090 -0.440603 0.227573 -0.072466 -0.524709 0.157500 0.343120 0.971049 -0.429226 -0.186732 -0.311671 0.357045 0.199186 0.340976 -0.190097 0.291709 0.565855 -0.574703 0.271107 0.602044 -0.735243 0.228843 0.147550 1.373383 0.159551 0.144421 0.212828 -0.334203 -0.247674 -0.498584 -0.266461 0.063436 -0.117702 -0.167438 -0.214436 -0.145440 -0.002651 -0.197145 -0.210175 0.381147 0.087407 -0.117853 -0.018970
台彩 -0.350782 0.177804 0.479437 0.268126 0.786941 0.040072 0.318756 -0.074891 -0.077496 0.105193 0.436644 -1.131716 -0.247961 0.314049 0.225029 -0.308726 0.375542 -0.572473 0.131320 -0.163378 -0.076894 -0.168631 -0.362200 -0.460873 -0.133692 0.233437 -0.720657 -0.307194 -0.763893 -0.063769 0.829488 0.097155 -0.267261 0.217455 0.282969 0.425641 0.234827 -0.013743 1.014293 0.195562 -0.212469 -0.387832 0.559203 -0.574180 0.418232 -0.646995 -0.433442 -0.756773 0.503204 -0.955222
投資 0.535432 -0.020856 -0.544318 0.475998 -0.277370 -0.377784 0.363082 0.494515 -0.497277 0.038306 0.227806 0.753559 0.237773 -0.063294 0.810213 -0.078522 -0.147680 -0.368250 0.495767 -0.183168 0.549880 -0.054003 -0.533789 0.813680 -0.047110 -0.405561 0.403019 -0.638416 0.472075 -0.061446 -0.254496 -0.057651 0.663538 -0.262285 -0.948047 -0.263401 -0.249284 0.136788 -0.302338 -0.262499 0.123587 -0.419983 0.157492 0.495489 -0.434233 0.492144 0.124352 0.217584 0.388533 0.389553
台北市 0.043155 0.195634 -0.028913 0.664796 -0.415791 0.516234 0.198417 -0.182552 -0.804841 0.845507 0.374917 -0.246935 1.442556 1.359292 -0.517658 0.127370 0.879683 -0.302148 -1.031110 0.485002 0.556338 -0.330075 -0.352642 -0.619686 -0.439900 0.741925 -0.216848 -0.348111 0.189119 0.587477 0.310886 -0.278688 -0.075055 0.227320 -0.074939 0.541034 -1.038928 -0.171260 0.497194 -0.362620 0.266790 0.345749 0.284688 0.279033 0.189849 -0.331867 0.275568 -0.971888 0.072304 0.097413
嫌 -0.164760 -1.062227 0.177497 0.483136 -0.615881 0.630812 0.083338 0.238410 0.341967 -0.033749 -0.593892 0.540151 -0.376000 0.094106 -0.269724 -0.489610 -0.064014 -0.634787 0.098446 0.612901 0.166157 -0.229146 0.343715 -0.613137 -0.362605 -0.383971 -0.365020 -0.420498 0.406802 -0.010784 -0.046945 -0.308487 -0.177072 -0.535787 0.915795 0.242373 -0.308777 0.521448 0.196450 -0.165149 0.534918 -0.109116 -0.156540 0.193926 0.028797 0.562876 -0.322388 -0.234613 -0.237102 0.257219
違反 0.062072 -0.169837 -0.343572 0.546793 0.461772 -0.540595 0.294799 -0.279457 0.717568 0.335521 0.141143 0.401883 -1.111085 0.016709 -0.201779 0.496988 -0.660750 -0.098585 -0.484253 -0.397601 0.637553 -0.597127 -0.669150 -0.034417 -0.110184 -0.142125 -0.773217 0.329098 0.344384 0.184247 0.436500 -0.318924 0.193655 0.306204 0.106867 -0.103123 -0.702369 -0.105383 -0.469535 0.066568 -0.303801 -0.487562 -0.749610 -0.393254 -0.217164 0.128568 -0.925010 -0.624177 0.285452 -0.190968
遭 0.245099 -0.531742 -0.181136 0.551006 -0.628387 0.486850 0.074870 -0.183270 0.238315 -0.067178 0.297151 0.363803 -0.092180 0.698944 -0.436179 0.291383 -0.017921 -0.423952 -0.859861 0.670904 0.204183 -0.073380 0.096010 -0.365902 -0.208020 -0.184696 -0.324320 -0.207468 -0.185981 -0.356858 0.156178 0.002242 -0.225289 0.262907 0.179019 0.034055 -0.137285 -0.034572 -0.081279 -0.111541 0.184181 -0.109856 -0.465054 0.079599 0.605746 0.448140 -0.223528 0.092661 0.023609 -0.220367
當時 0.458737 -0.529539 0.222894 0.327306 -0.110876 0.306186 -0.279149 -0.077456 0.378179 0.148854 -0.248671 -0.223777 0.279559 0.000151 0.123493 0.078096 -0.868150 -0.126087 -0.302703 -0.003024 -0.086449 0.056442 -0.247755 -0.452140 -0.295637 0.427899 0.417950 -0.555197 -0.331746 0.345460 0.287617 0.329516 0.092833 0.238747 0.347322 0.582628 -0.676833 -0.422526 -0.281477 0.320400 0.524347 -0.517449 -0.549117 0.384595 -0.132765 0.135035 -0.349586 0.492034 0.063203 0.479719
發生 0.366329 -0.400541 0.005243 -0.032969 -0.640464 0.325943 -0.087134 -0.152394 0.282600 0.087377 -0.457229 0.029419 -0.144551 0.136381 -0.116787 -0.247032 -0.113183 -0.181403 -1.174343 0.296437 -0.085637 0.362599 0.154624 -0.065547 0.076532 0.408029 0.449335 0.035236 -0.311940 -0.022770 0.151421 0.147366 -0.138046 0.141000 0.577650 -0.027270 0.130571 -0.288203 -0.185828 0.479560 0.016434 0.283938 -0.296260 0.499553 0.428279 -0.096982 -0.013737 0.961148 0.050902 0.208113
財經 -0.435880 0.791898 -0.213310 0.184384 0.372581 -0.464774 -0.191771 0.044472 -0.652483 -1.116383 -0.638616 -0.281504 0.655878 -0.657017 -0.291893 -0.218800 0.673931 0.752310 0.989530 0.273636 0.396869 -0.224120 -0.281584 -0.274827 -0.002863 0.157717 0.070245 0.185445 -0.551277 0.007186 -0.039037 0.173163 -0.814498 -0.719055 -0.468461 -0.239880 0.979290 -0.274782 0.110718 0.534637 -0.076792 0.156675 0.174065 -0.736373 0.165506 0.407000 0.344963 0.421177 0.190749 -0.079462
送 0.276801 -1.036481 0.393560 0.437118 -1.017395 0.631003 0.450734 0.372515 0.791328 -0.055242 -0.178421 0.580135 -1.109981 0.226590 -0.456127 -0.647996 -0.236166 -0.008327 -0.350167 0.591389 -0.157176 0.058274 0.513567 -0.690095 0.346131 -0.589547 -0.450932 0.039624 0.478043 -0.400936 0.020061 -0.290915 -0.296263 -0.074252 0.741187 0.477150 -0.425559 0.818677 0.300904 -0.159614 0.331268 0.012952 -0.130652 -0.353509 -0.248385 0.088082 -0.421125 -0.236519 -0.438296 0.145432
逮捕 -0.317662 -1.236394 0.116687 0.270351 -0.757639 0.830872 0.102473 -0.175489 0.289523 0.157513 -0.374728 0.438642 -0.226952 0.429763 -0.573563 0.126710 -0.033625 -0.708678 -0.986723 0.523175 0.169967 -0.135522 0.565916 -0.529893 -0.062903 -0.141148 -0.895281 -0.129293 -0.272869 -0.379831 0.135513 0.063518 -0.385218 -0.228343 1.068318 -0.231936 -0.221032 -0.235933 -0.236914 -0.322527 0.192753 -0.147366 -0.569579 -0.106488 0.266198 0.615368 0.016535 -0.023960 -0.046066 -0.072116
其中 0.401446 0.503379 0.015520 0.167057 0.216312 -0.173117 0.024309 0.332865 -0.079520 0.367056 0.406935 -0.123962 -0.314904 -0.304810 -0.000551 0.287124 0.281819 -0.103664 0.104689 0.626381 0.126533 -0.463354 0.139664 0.521141 -0.054127 0.017284 -0.553241 -0.604170 0.388759 0.065078 0.537166 -0.087433 0.525047 0.435495 -0.026320 0.359589 -0.209545 -0.178564 0.389298 -0.215861 -0.272548 -0.196453 -0.293991 0.091656 0.045156 0.099688 -0.176220 0.576108 0.126821 -0.220311
搜索 -0.700760 -0.863071 0.092032 0.438732 -0.011691 0.251528 0.426139 -0.118958 -1.020151 0.529915 -0.438167 0.238976 -0.440075 0.339128 -0.663507 0.199307 1.040464 -0.867663 -0.521476 0.230448 0.667870 -0.338908 -0.477426 -0.306004 0.504872 0.856142 -2.208742 -0.544334 -0.795851 0.766994 0.439441 -0.163547 0.301227 -0.511857 0.359496 0.065359 -0.275392 -0.023919 0.177110 -0.185066 0.072458 0.090414 0.414089 -0.170647 -0.229335 0.350639 0.686078 -0.082651 -0.323925 -0.339940
詐 0.098361 -0.242612 -0.071689 0.460448 0.416468 -0.591263 0.575909 0.203655 -0.098049 -0.170912 0.632465 0.109280 -0.807209 0.064626 -0.534739 -0.260757 0.135949 -0.274780 0.893135 0.072456 1.219794 -0.467861 0.041530 -0.112039 -0.716608 -0.613354 -1.246218 0.118714 0.357587 0.103004 0.449523 -0.056273 -0.206850 -0.193372 0.551580 -0.388404 -0.537771 0.196782 -0.168064 -0.232134 -0.078426 -0.822331 -0.388246 -0.475966 0.426649 0.584361 -0.403306 -0.511256 -0.058027 -0.532337
個 0.410506 -0.474082 -0.290463 0.251362 0.290577 0.000313 -0.475751 0.344120 -0.343681 -0.007072 0.026368 -0.093301 -0.038768 -0.387343 -0.137242 -0.202105 -0.326210 -0.375814 0.020063 0.428840 0.304570 -0.625852 0.058264 0.047913 -0.684870 -0.011823 -0.220119 -0.692449 0.222274 0.068284 0.367062 -0.098750 -0.009185 0.422029 -0.058586 0.577689 -0.743297 -0.212772 0.008780 -0.368761 -0.313491 -0.133102 -0.313206 -0.070095 0.306848 -0.119010 -0.564580 0.058054 0.100384 -0.794847
把 0.650430 0.115604 -0.195357 0.195046 -0.193471 0.007890 -0.177298 0.246489 0.134441 0.198674 -0.122649 0.429230 -0.189604 -0.148923 0.422122 -0.044778 -0.167812 -0.393290 -0.116733 0.277396 -0.150461 0.318194 -0.027309 0.708399 -0.209978 -0.108585 0.261767 -0.834405 0.142957 -0.165116 -0.099132 0.354388 0.468286 0.315477 0.006924 0.537581 -0.379097 -0.141299 -0.261509 0.018951 -0.241720 0.148440 -0.206684 0.851283 0.308399 0.248840 -0.509853 0.248029 0.143825 -0.389937
高院 0.163541 0.531112 -0.700652 0.262309 0.768008 0.175840 -0.531064 0.253753 0.379247 -0.011462 0.718874 0.093877 -0.835266 0.222208 -0.262822 -0.473113 -0.700223 -0.005080 -0.777128 -0.831613 -0.579511 -1.172310 0.499141 -0.590859 -0.204381 0.182749 -0.586210 0.696009 0.573540 0.478526 -0.660400 -0.400774 0.784766 0.586106 0.009367 0.502350 0.193018 -0.396123 0.483128 -0.433305 -0.549183 -0.271021 0.063601 0.919974 0.411779 0.123522 0.447907 0.520588 0.880887 -0.413069
其他 0.468051 -0.323091 0.292614 0.100593 -0.142569 -0.278373 0.207117 -0.233176 0.098647 0.060709 -0.050178 0.148552 -0.055475 0.150708 0.511971 0.223120 -0.520259 -0.488052 0.118648 0.116509 0.571003 -0.042637 -0.332199 0.646731 0.018346 -0.153631 0.483797 -0.036942 0.092278 0.030134 0.275158 -0.052460 0.685754 0.591448 -0.219285 0.090043 -0.269560 0.251747 -0.786228 0.305862 -0.110441 -0.032110 -0.690215 0.522990 -0.405717 0.034116 -0.390450 0.130188 0.191649 -0.415555
其 0.047465 -0.379198 0.351877 0.244336 -0.518129 -0.168267 0.122426 0.400305 0.122863 0.007540 -0.215692 0.157945 -0.152869 0.122572 0.251281 -0.132856 -0.629119 -0.421429 -0.155024 0.209743 0.534256 -0.275454 0.127437 0.015656 0.162842 -0.036869 0.180831 0.125031 0.394348 0.073200 0.295891 -0.210040 0.480543 0.190452 0.439728 0.316567 -0.344425 -0.297638 -0.592242 -0.000405 0.222645 -0.333110 -0.504076 -0.124782 -0.578725 0.136674 0.057846 0.255232 0.306670 0.354428
參獎 0.515609 -0.410008 -0.017563 0.729264 0.232731 -0.126380 0.207693 0.386920 0.011406 0.042214 0.378591 0.903105 -0.440861 -0.297732 0.327255 0.234847 -0.172524 -0.519993 0.229368 0.021595 0.014155 -0.224379 0.280761 0.377163 0.299430 -0.394784 -0.326099 -0.532992 0.688557 -0.452671 -0.097400 -0.428987 1.107090 0.017756 -0.382271 0.059502 0.055933 -0.140405 -0.197139 -0.195631 0.277158 -0.631099 0.186181 0.628114 -0.575131 0.405793 -0.315112 0.483328 0.217814 0.398503
打 -0.230000 -0.453393 0.561465 -0.188239 -0.550540 0.798250 -0.008948 0.254740 0.046834 -0.368903 -0.447598 0.159160 -0.274828 0.258226 0.081738 -0.016807 0.239282 -0.040944 -0.148357 -0.150054 0.107634 0.026740 -0.559795 0.095723 -0.403564 -0.105167 0.058767 0.055240 0.219590 -0.048438 -0.840843 0.593707 0.358419 -0.056078 0.989047 0.178583 -0.239143 0.092856 -0.548297 0.693480 -0.090801 0.398717 -0.447524 0.174929 0.086825 0.021081 -0.158544 0.558624 0.269710 0.213673
提告 0.217418 -0.529917 0.500718 0.122748 -0.455189 -0.037658 0.122552 -0.250827 0.353317 -0.289885 0.403606 0.859790 -0.523045 0.220447 -0.527169 -0.410285 0.006685 -0.200835 -0.843446 0.122113 0.038348 -0.385881 -0.025812 -0.754695 0.361090 -0.184982 -0.266218 0.306109 -0.064305 -0.401135 -0.372046 -0.053913 0.363825 0.040823 -0.080474 0.490617 0.273295 0.459115 -0.218796 0.100006 0.323547 -0.607174 0.057779 0.322244 0.041989 0.796140 -0.288752 0.075331 0.684414 0.852167
新竹 -0.289617 -0.647756 -0.413406 -0.395565 0.112775 -0.122894 -0.272597 0.056592 -0.368638 -0.024135 -0.199696 -0.277953 -0.457585 0.773481 -0.355245 -0.493584 0.687803 0.230399 -0.906877 0.064920 0.136913 -0.165478 0.108058 -0.410263 0.065052 0.353908 -0.475991 0.372046 -0.273993 -0.447225 0.118587 -0.758110 -0.228617 -0.436971 -0.343467 0.083001 0.600604 -0.074498 0.513132 -0.527957 0.060132 -1.315412 0.713011 -0.515878 0.510259 1.186838 0.775534 -0.190380 0.515128 0.445427
期間 0.252885 -0.716445 -0.316673 0.112553 -0.231338 -0.210112 -0.103031 0.151851 -0.303032 0.131320 -0.282046 -0.184840 0.059936 0.185258 -0.205456 -0.158956 -0.405125 -0.242348 -0.272502 0.401658 0.644303 -0.265425 0.417704 -0.380272 0.081494 0.362346 -0.375494 -0.184332 -0.089572 0.171589 0.524425 -0.455945 0.029993 0.186596 0.240081 0.227373 -0.629266 -0.729613 -0.430913 -0.177830 0.183147 -0.719652 0.006379 -0.157450 -0.350369 -0.250591 0.288899 0.234860 0.152585 0.119338
條例 -0.154083 -0.399716 -0.613199 -0.165752 0.437453 -0.878886 -0.050620 0.431994 0.609533 0.480629 -0.128046 0.401129 -1.439539 -0.449662 -0.080376 1.150070 -1.069396 0.224583 0.014068 -0.193454 0.989452 -0.116194 -0.922219 0.656628 -0.663331 -0.665987 -0.676619 -0.085735 0.317433 0.299223 0.758813 -0.609475 -0.036820 0.020126 -0.369029 -0.469027 -0.883020 -0.281560 -0.319659 -0.034619 -0.514772 -0.514989 -0.213244 -1.277738 -0.234666 0.167021 -1.221048 -1.609461 -0.531030 -0.354697
現場 0.195673 -0.618635 -0.043257 0.408528 -0.778078 0.369589 0.073678 -0.138044 -0.578733 0.056490 -0.225054 0.594291 0.018190 0.371797 0.045585 -0.226034 -0.089205 -0.280652 -0.821930 0.072396 0.068057 0.220183 0.226991 -0.187411 0.323411 -0.105694 0.045005 -0.154060 -0.431948 -0.883935 -0.047031 -0.067766 -0.564761 -0.026588 0.445716 0.634381 -0.098472 -0.119200 -0.299626 0.096339 -0.183197 0.362412 0.139792 -0.064845 0.127954 0.210298 0.206988 0.272957 0.281867 0.159189
相關 0.032327 -1.426298 0.006490 -0.140359 -0.341878 0.073538 -0.147395 -0.102185 -0.421046 0.517701 -0.092843 0.172915 -0.569014 0.049089 0.096043 0.262067 -0.123322 -0.786735 -0.569488 0.031371 0.330192 -0.172921 0.184067 -0.208208 -0.330773 0.385157 -0.471245 0.481717 0.066758 0.014642 -0.096347 -0.284112 0.423144 0.477969 -0.012709 -0.017246 -0.752382 0.017027 -0.325832 -0.097969 -0.406350 0.295375 -0.218986 -0.149569 -0.172829 0.309712 0.687296 0.151002 -0.146912 -0.285384
所得 0.446625 0.416574 -0.253185 -0.134914 0.935112 -0.108561 0.208677 0.581670 0.089985 -0.059582 0.561761 0.460976 -1.499908 -0.628343 1.038048 -0.623935 -0.850668 -0.069189 0.905026 0.490020 0.642580 -0.685400 0.307876 0.258705 -0.395407 -0.862251 0.334720 -0.578963 0.886393 -0.728145 0.641607 0.086853 0.901242 -0.073141 -0.458066 0.429630 0.169400 -0.252751 0.552736 0.007016 0.515483 -0.814102 0.419222 0.447177 0.101809 0.426065 -0.607691 -0.183977 -0.004185 -1.334039
確定 0.386808 0.264131 -0.563441 -0.136660 0.392432 0.663707 -0.447849 0.457081 0.107608 0.343611 0.132259 0.067131 -0.583367 -0.245652 0.448304 -0.070801 -0.388196 -0.155007 -0.430629 0.146337 -0.608894 -0.256350 0.253158 -0.310086 -0.292246 0.128283 -0.262582 0.529528 1.093088 -0.138260 -0.159152 -0.721912 1.078986 0.338934 0.334507 0.402907 0.291333 -0.145070 0.437487 -0.316417 0.258555 0.128195 0.131540 -0.084482 0.284945 0.676923 -0.038212 0.269020 0.328962 -0.319920
進行 -0.147353 0.109837 0.017983 -0.211506 -0.612511 -0.071414 -0.087596 0.109951 -0.674774 -0.127736 -0.623900 0.075737 0.258279 -0.187930 0.314545 -0.137591 -0.098741 -0.434317 -0.507879 0.110541 0.436506 -0.150757 -0.388330 -0.192578 0.246896 0.278307 -0.025246 0.002343 -0.309447 0.013491 0.249203 -0.020537 -0.128901 0.048506 0.205424 0.289211 -0.256890 -0.637190 -0.900798 0.091932 0.082341 0.196444 -0.116787 -0.380114 -0.244050 0.013454 -0.024710 0.097155 0.446668 0.074674
今天 -0.510206 0.142020 -0.275757 0.169386 0.720940 0.005975 -0.660634 0.016312 0.104999 -0.258588 0.044261 -0.431061 -0.068635 0.328784 -0.383277 -0.326462 0.115005 0.021214 -0.969255 -0.040096 -0.215907 -1.021341 -0.298830 -0.846110 -0.218090 0.548727 -0.503231 0.221438 0.034978 0.194210 0.160465 -0.107190 0.371972 -0.224615 0.058295 0.215076 0.221216 -0.758121 1.095717 -0.329161 0.367982 -0.526558 0.038860 -0.056600 0.570845 0.863019 0.392458 -0.076016 0.623366 -0.602749
執行 0.080750 -0.263251 -0.183697 -0.203793 0.305016 -0.336275 -0.282160 -0.015663 0.097748 0.046095 0.292714 -0.106283 -0.204133 0.098313 -0.008930 0.099088 0.143501 -0.654358 -0.433254 0.173000 0.518136 -0.402785 -0.152882 0.151116 0.056256 0.306193 -0.765068 -0.175416 -0.432108 0.099873 0.920778 0.313305 0.148476 0.080279 0.134247 -0.036397 -0.505020 -0.489017 -0.057883 -0.546955 -0.257011 -0.335707 -0.045250 -0.429849 0.572570 0.465773 -0.165680 0.071105 -0.004586 -0.101357
起 0.225698 -0.018991 -0.380949 0.210432 0.147980 -0.100500 -0.074242 0.172222 -0.374062 -0.196730 0.076835 -0.237753 0.278706 0.417801 0.328715 0.266691 -0.221503 -0.450223 -0.502130 0.784359 0.535253 -0.027845 0.398596 0.091805 -0.112166 0.469425 -0.315478 -0.655819 -0.031178 0.084862 0.914421 0.183689 0.060100 0.399567 -0.130126 0.096040 -0.542729 -0.911394 0.048289 -0.423240 -0.358559 -0.708238 -0.336211 0.488662 0.360999 0.097699 -0.367228 0.326675 0.486153 -0.678900
公所 -0.476990 -0.130499 -0.159986 -0.400313 -0.601741 -0.103827 0.116168 -0.062201 -1.338866 0.003815 -0.347343 -0.468469 0.531460 0.130214 -0.222915 -0.150558 0.200798 -0.091425 0.552554 0.845496 1.029187 -0.013718 0.280763 -0.091932 0.045728 0.668778 -0.555386 -0.237613 -0.209912 0.691120 0.123312 -0.372432 -0.410412 0.441819 -0.262988 -0.549160 0.080926 -0.054880 -0.569485 -0.040281 -0.130641 -0.366355 0.212909 -0.177365 -0.854556 -0.342089 0.513008 -0.366751 0.204888 0.245297
助理 0.022650 1.301972 -0.099886 -0.085455 -0.060862 -0.342172 0.700117 -0.513022 -0.388751 0.577378 -0.143762 -0.137457 0.356693 -0.314933 0.343922 0.331568 0.920124 0.311625 0.714931 0.091424 0.534840 0.221107 0.423445 0.631588 -0.327927 0.309452 -0.522974 -0.119347 0.367795 -0.193744 -0.182403 0.113261 0.607646 0.485457 -0.544925 -0.414536 -0.222327 -0.125346 -0.215036 -0.200054 -1.011774 0.113099 -0.253221 0.891943 -0.294568 0.026385 0.623035 0.208021 0.087682 -0.196166
小 -0.339367 -0.320251 0.335156 0.131836 -0.436599 0.128515 -0.231510 0.225691 -0.372215 -0.037758 -0.909052 -0.317062 -0.142600 -0.297451 -0.052707 -0.489900 -0.287179 -0.483342 -0.334485 0.260338 0.299021 -1.010869 -0.046311 -0.598197 0.230248 0.315527 -0.276426 -0.522509 -0.139643 0.324135 0.973049 -0.168271 0.248469 -0.169668 -0.133181 -0.192426 -0.012180 -0.521815 -0.168158 0.915938 0.467902 -0.319824 -0.750651 0.300209 -0.352111 -0.260919 -0.348073 1.349423 0.404002 0.552710
檢調 0.136076 -1.142010 -0.021817 0.486269 -0.150200 0.294460 0.062810 0.010706 -0.362219 0.144922 0.398121 0.865638 -0.103552 0.635245 -0.272957 0.507306 0.206133 -0.584496 -0.811943 0.059530 0.201279 -0.143432 -0.345365 0.202696 0.619006 0.054209 -0.955544 -0.411075 -0.175435 0.006872 0.186426 -0.018450 0.410660 -0.215302 0.243437 -0.078503 -0.579506 -0.304340 0.144595 -0.413003 0.063016 0.037567 -0.082153 0.101555 0.103778 0.531080 0.314272 -0.016993 -0.327598 -0.268259
中國 0.383697 0.046606 0.059992 0.160864 -0.342108 -0.042662 0.120266 0.115031 -0.797900 0.482457 -0.281942 -0.503032 0.433775 0.587677 0.558809 -0.027814 0.093952 -0.348685 -0.021216 -0.103316 0.299459 -0.019442 -0.328964 0.718960 -0.053216 0.546393 0.173517 -0.794085 -0.157250 0.112333 0.459826 0.344740 0.143741 0.461516 -0.437162 0.054059 -0.739670 -0.218883 -0.171272 -0.102672 -0.283860 -0.200292 -0.159840 0.201301 -0.188287 -0.295479 -0.080981 0.054781 0.261521 -0.347970
犯行 0.104695 -0.360271 0.687483 0.707758 0.049532 -0.109956 0.207041 0.177294 0.418100 0.401600 0.229946 0.515772 -0.805717 -0.080393 -0.199404 -0.895853 -0.940614 -0.483796 0.077405 0.250865 0.535111 -0.844092 0.387984 -0.800718 -0.342998 -0.243004 0.147372 0.425778 0.137519 -0.196679 0.017153 0.120583 0.850767 -0.735479 1.041281 0.778740 0.011888 0.532908 -0.148304 0.424756 0.492370 -0.102836 0.022842 0.327957 0.238689 0.624713 -0.093452 -0.015674 0.035548 0.536396
被控 0.432768 -0.045195 -0.518256 0.667492 0.155179 0.156625 0.035304 0.344246 -0.643926 -0.253992 -0.150553 -0.257330 0.957449 0.488894 -0.367453 -0.085031 0.475092 0.264392 -0.024159 0.476351 0.561531 -0.633781 0.877114 -0.234435 -0.529236 0.529882 -0.520247 -0.613548 0.834928 0.163287 0.199975 -0.343290 0.011744 0.076554 -0.073297 0.030967 0.106236 -0.156086 0.190203 -0.242134 0.068116 -0.494068 -0.125443 0.246537 -0.234481 0.285494 0.116244 0.120588 0.410769 -0.113725
跟 0.087884 -0.171734 0.602112 -0.190698 -0.132189 0.196522 -0.500974 0.073343 0.252817 -0.077463 -0.675765 -0.168895 0.462860 -0.096468 0.371649 0.109374 -0.239425 -0.000342 -0.383923 -0.246413 -0.286803 0.239532 -0.583168 0.211738 -0.144934 0.119837 0.948154 -0.775638 -0.198563 0.416752 0.216553 0.865509 0.156875 0.207603 0.122004 0.220538 -0.118041 -0.350363 -0.472237 0.736718 0.111463 -0.062889 -0.485065 0.841351 0.107115 -0.064808 -0.768588 0.531349 0.387144 0.439642
吸金 0.116937 0.448180 -0.429558 0.392591 -0.413617 -0.253375 0.604784 0.357550 -0.334354 0.298794 0.383648 0.461322 -0.180936 -0.196252 0.751580 -0.443814 0.176024 -0.286271 0.523244 0.167333 0.599420 -0.667248 0.072769 0.946700 -0.267440 -0.259919 -0.358608 -0.353329 0.685777 -0.318254 0.116275 -0.108911 0.537694 -0.159391 -0.729581 -0.125289 -0.183863 0.390113 -0.025883 -0.254011 -0.374265 -0.243825 0.039738 0.106537 -0.329679 0.334443 0.500775 -0.065278 0.349589 -0.216177
案件 0.049996 -0.508785 -0.462188 -0.136523 -0.261932 0.015553 -0.157344 -0.113661 0.044467 0.179440 0.209719 0.187348 -0.417951 0.393335 0.038475 0.018850 -0.472488 -0.374463 -0.221447 -0.012435 0.300364 -0.035625 0.242747 0.181876 -0.158156 0.058180 -0.230770 0.138366 -0.045124 0.083323 -0.040520 0.122162 0.045031 0.428786 0.107715 0.021034 -0.386343 -0.333003 -0.497932 -0.480894 -0.323305 -0.080404 -0.239801 0.180887 -0.219207 0.180610 0.450990 -0.110103 0.062089 -0.444343
目前 0.236386 -0.646229 -0.024524 -0.017464 -0.515976 0.753439 -0.306676 -0.175749 -0.259288 0.401701 0.538914 0.393111 -0.314356 0.445857 0.083237 0.062302 -0.443843 -0.555471 -0.925441 0.207771 -0.472774 -0.339678 0.348425 -0.579985 0.121651 0.072955 -0.102276 0.049723 0.149849 -0.398882 -0.256903 0.102404 0.151867 0.203699 0.472851 0.094362 -0.380158 -0.274516 0.068021 -0.316484 0.274305 0.069571 -0.118631 -0.324671 0.062228 -0.054031 0.125773 -0.041362 -0.165227 -0.196742
造成 0.356999 -0.342485 0.128480 0.007600 -0.566316 0.000408 0.050967 -0.122500 0.030845 -0.081820 -0.092273 0.175882 -0.287639 0.139312 0.427888 0.198202 -0.061254 -0.101758 -0.407217 0.204711 0.143699 0.520965 -0.140218 0.503211 -0.137963 -0.204456 0.436494 0.061124 -0.111860 -0.279133 0.008904 -0.040691 0.061247 0.433181 -0.185093 0.087980 -0.214825 0.268072 -0.502347 0.327354 -0.443455 0.139336 -0.621139 0.240345 -0.113452 0.057880 -0.217244 -0.013444 0.146731 -0.063172
